\data\
ngram 1=4095
ngram 2=149736

\1-grams:
-5.172699	<unk>	0
0	<s>	-1.3038168
-1.9565861	</s>	0
-2.0948904	的	-0.9830726
-2.3542461	在	-0.64603657
-2.4298515	一	-0.84449345
-2.5400686	了	-0.56544966
-2.4962647	是	-0.49739194
-2.3518682	和	-0.43466222
-2.6502292	人	-0.61519784
-2.530303	上	-0.6123173
-2.494285	大	-0.691242
-2.5504332	有	-0.5924398
-2.5100393	中	-0.6492552
-2.4665504	不	-0.7643023
-2.5719357	为	-0.46073082
-2.5591362	将	-0.45785797
-2.6144996	对	-0.4514029
-2.536426	被	-0.5112417
-2.7075958	三	-0.8099545
-2.6326756	出	-0.58644336
-2.6948729	到	-0.41251314
-2.726283	会	-0.5353913
-2.8732455	中国	-0.57163656
-2.5746999	也	-0.56967807
-2.617987	后	-0.540115
-2.800185	市场	-0.5853888
-2.58675	与	-0.3492708
-2.7285354	以	-0.40266863
-2.6871064	时	-0.55718327
-2.7434673	新	-0.6107003
-2.8646653	公司	-0.46062344
-2.8102884	下	-0.517656
-2.7376633	高	-0.72889405
-2.8192391	二	-0.8593888
-2.9059584	车	-0.56135297
-3.0265896	而	-0.3658035
-2.904263	五	-0.80238557
-3.7677355	但	-0.41354114
-2.859292	四	-0.75357
-2.7038465	就	-0.52162087
-2.5731182	等	-0.48973775
-2.7877154	地	-0.44394955
-2.8096075	多	-0.5929234
-2.7903109	前	-0.530967
-2.9394984	家	-0.48368376
-3.019913	这	-0.72551924
-2.867766	分	-0.6528372
-2.9068086	企业	-0.45826715
-2.8192391	来	-0.44992107
-3.0111675	日	-0.65793604
-2.8206327	从	-0.35567755
-3.0277123	六	-0.766618
-2.9515944	性	-0.55425525
-2.9728644	八	-0.8576387
-2.8255458	小	-0.50748736
-2.8420913	要	-0.39556724
-2.7737107	发	-0.58821917
-3.0090084	七	-0.80630386
-2.7774856	都	-0.47386485
-3.072685	九	-0.86364996
-3.0519881	化	-0.4965713
-3.0472584	名	-0.4627695
-3.048436	其	-0.27046216
-3.0591807	于	-0.30621877
-3.0866225	他	-0.4177471
-2.7968686	还	-0.5002822
-2.94226	好	-0.5733069
-2.8406272	两	-0.71079344
-3.1356413	年	-0.5045446
-3.24673	个	-0.46944135
-2.8116536	自	-0.6336036
-3.0677257	点	-0.56124413
-3.065267	行	-0.4765868
-3.0449126	我	-0.46880683
-2.8137093	开	-0.61639416
-3.0391033	并	-0.42429632
-3.0133374	天	-0.44313288
-2.9413376	用	-0.39695573
-3.0004778	一个	-0.309211
-2.8884773	向	-0.36264804
-3.4124384	记者	-0.6160009
-2.9808645	长	-0.49495947
-2.981875	生	-0.52459794
-2.8123376	已	-0.44402725
-3.2561395	力	-0.4760343
-3.2008405	部	-0.41858196
-2.998371	能	-0.39034292
-3.0232384	着	-0.27802628
-3.075186	区	-0.4039189
-3.0425797	让	-0.42051017
-3.0133374	十	-0.74582064
-3.1023552	市	-0.41101632
-3.0221272	称	-0.45349517
-3.1077287	北京	-0.46904925
-3.0472584	内	-0.41415507
-2.9215233	二十	-1.0670173
-2.8355417	已经	-0.40780574
-2.8654385	外	-0.6131893
-3.0133374	国	-0.5562442
-2.99523	路	-0.52326226
-3.0789647	子	-0.3968967
-3.01881	可以	-0.41553974
-3.0425797	发展	-0.5515411
-2.8532317	打	-0.5286904
-3.1608646	场	-0.47656447
-2.9900446	项目	-0.48841292
-2.967938	成	-0.41114032
-3.2161827	我们	-0.4337654
-3.003657	手	-0.48524186
-3.1242602	面	-0.47504175
-2.8631234	过	-0.45140135
-3.1159158	报	-0.6599813
-3.1077287	者	-0.37505177
-3.0232384	产品	-0.47627315
-2.8035266	之	-0.5631703
-2.8884773	更	-0.54063857
-2.9093695	可	-0.4646568
-2.9879878	说	-0.4800736
-2.948773	起	-0.48519325
-2.8465133	无	-0.55102473
-2.99523	投资	-0.4437847
-3.0133374	表示	-0.7190412
-3.048436	入	-0.3710701
-3.1748357	她	-0.38392848
-3.1925454	目前	-0.35805345
-3.3467746	万	-0.5995089
-3.0356545	比	-0.46580637
-2.8479972	进行	-0.28524765
-3.0277123	里	-0.43897954
-3.24673	上海	-0.3640766
-2.9441109	最	-0.613248
-3.0543725	金	-0.46071482
-3.1385338	法	-0.5440354
-2.967938	主	-0.598184
-3.214451	城市	-0.5178689
-3.0677257	女	-0.4798525
-3.2736075	局	-0.420965
-3.0739336	商	-0.55176616
-3.2504694	队	-0.41014892
-3.1299136	政策	-0.51937616
-3.2110083	量	-0.44414037
-3.004722	没有	-0.2661516
-3.2267206	线	-0.47020894
-2.9640367	看	-0.607344
-2.9277303	当	-0.5599092
-2.967938	给	-0.34838462
-2.9497113	所	-0.42889217
-3.2231796	赛	-0.5787753
-3.0579736	本	-0.59562266
-3.2214198	动	-0.53881854
-3.4124384	位	-0.37318826
-3.1547966	事	-0.562617
-3.0425797	水	-0.39469358
-3.426289	价	-0.47065085
-3.1270776	道	-0.48144475
-3.0090084	强	-0.666643
-3.230291	零	-0.7075403
-3.1159158	心	-0.46788412
-3.132768	头	-0.3888197
-2.9808645	进	-0.5398095
-3.349125	度	-0.35756108
-2.9788506	去	-0.36209777
-3.0133374	同	-0.51264596
-3.353864	月	-0.4745524
-3.0701983	电	-0.64170325
-3.228502	方	-0.30893648
-2.9515944	全	-0.6480376
-3.209297	定	-0.45592222
-3.1811924	该	-0.39542356
-3.1503005	王	-0.47564918
-3.1159158	东	-0.5330091
-2.9102263	回	-0.6501987
-3.1036925	行业	-0.40149385
-3.0288382	重	-0.41090137
-3.1131697	机	-0.5164925
-3.2836246	期	-0.42445818
-3.212726	工	-0.47506702
-3.0931087	海	-0.50818944
-3.048436	加	-0.55703485
-3.2042034	城	-0.43046403
-2.998371	得	-0.42972162
-3.5308025	米	-0.5551281
-3.0111675	总	-0.655592
-3.1670187	周	-0.48838317
-3.1104407	成为	-0.29756215
-3.2075925	价格	-0.45716947
-3.1270776	身	-0.49278373
-2.977847	做	-0.42127132
-2.9738562	走	-0.5846688
-3.1563056	网	-0.4137289
-3.3173258	业	-0.40923637
-3.2058945	华	-0.49985754
-3.1593397	销售	-0.50796765
-3.1356413	约	-0.4837107
-3.1010222	安	-0.4725222
-3.1313384	由	-0.2679627
-3.072685	技术	-0.4330098
-3.1958444	某	-0.35208902
-3.1414459	至	-0.40768868
-2.9188902	及	-0.21523212
-3.2214198	房	-0.4236767
-3.1342022	自己	-0.27474126
-3.0210187	老	-0.6291265
-3.0122511	工作	-0.487539
-3.1639307	数	-0.45653105
-3.1909053	制	-0.47996286
-3.2836246	情	-0.45649812
-3.0739336	因	-0.25401452
-3.0243526	受	-0.4913931
-3.0970476	跑	-0.5040798
-3.426289	利	-0.4282475
-3.1145406	相关	-0.57712066
-3.315141	案	-0.4895167
-3.1256666	通过	-0.21647716
-3.2161827	今年	-0.40268105
-3.121461	管理	-0.5771856
-3.1925454	达	-0.4721855
-3.353864	口	-0.3759867
-3.084055	问题	-0.597478
-3.212726	建	-0.43862015
-3.0866225	开始	-0.3268165
-3.2249465	战	-0.50216717
-3.0555696	公	-0.72600317
-3.148812	这个	-0.29115343
-3.1399875	需要	-0.29114738
-3.291808	台	-0.4373836
-3.01881	则	-0.29913232
-3.1370852	张	-0.49934638
-3.3086522	物	-0.4801615
-3.2357018	比赛	-0.4794892
-3.064043	平	-0.5851265
-3.258046	理	-0.5224992
-3.1795945	文	-0.39262494
-3.1399875	业务	-0.41946933
-3.0531788	正	-0.454801
-3.084055	很	-0.472852
-3.291808	男子	-0.39961076
-3.1186795	首	-0.81244636
-3.2110083	银行	-0.3950787
-3.2179215	体	-0.4196332
-3.3129673	气	-0.40838927
-3.1860218	门	-0.43714213
-3.214451	处	-0.3865112
-3.4179258	房企	-0.39937
-3.2231796	产业	-0.4400562
-3.864199	岁	-0.69528514
-3.040259	合	-0.62279665
-3.2504694	学	-0.38511667
-3.3444371	对于	-0.1983823
-3.0827768	出现	-0.36485797
-3.391157	百	-0.65203357
-3.358655	意	-0.42374676
-3.1654718	美	-0.41407603
-3.1991687	想	-0.47147426
-3.298048	全国	-0.37933975
-2.9162729	或	-0.24843161
-3.2025187	李	-0.52248996
-3.148812	单	-0.48626015
-3.120068	各	-0.6357728
-3.1145406	服务	-0.49345395
-3.5030622	款	-0.35092783
-3.151794	马	-0.45662308
-3.4801633	级	-0.3897454
-3.0957305	转	-0.55174685
-3.072685	再	-0.37600422
-3.1256666	通	-0.5536356
-3.2025187	国家	-0.42927963
-3.1256666	可能	-0.41344252
-3.0944176	近	-0.5586254
-3.0288382	又	-0.3262041
-3.2110083	资金	-0.4350034
-3.4676003	千	-0.70492584
-3.4234834	因为	-0.2124826
-3.2561395	伤	-0.5517262
-3.0714397	未	-0.36160555
-3.0905025	保	-0.5459271
-3.4151735	此	-0.40743697
-3.5416794	元	-0.56179106
-3.3217285	楼市	-0.46590072
-3.2375205	一些	-0.2153449
-3.1443772	把	-0.2296468
-3.0931087	却	-0.36607835
-3.228502	世界	-0.50816363
-3.3306699	未来	-0.35060498
-3.358655	房价	-0.5182829
-3.1458507	特	-0.47065598
-3.232087	西	-0.44982463
-3.151794	交	-0.5406752
-3.1563056	较	-0.75705767
-3.0689602	流	-0.59235525
-3.1547966	第一	-0.63360673
-3.3963802	万科	-0.35075194
-3.5800393	次	-0.28190896
-3.3086522	增长	-0.5813726
-3.0391033	放	-0.625032
-3.2677064	明	-0.3838321
-3.0827768	相	-0.53742176
-3.1532927	风	-0.51895726
-3.2357018	你	-0.4066262
-3.4707072	率	-0.43680617
-3.3610706	他们	-0.29632723
-3.2058945	交易	-0.485696
-3.1892715	男	-0.6267915
-3.4179258	百分之	-1.2000501
-3.3634996	费	-0.38637048
-3.1670187	方面	-0.432764
-3.0356545	还是	-0.24070422
-3.0970476	接	-0.56015205
-3.239347	时间	-0.3698753
-3.1958444	要求	-0.32481843
-3.1748357	三十	-0.8479053
-3.2357018	监管	-0.4958084
-3.3659425	税	-0.54201233
-3.6177225	员	-0.28766817
-3.2876968	数据	-0.45023173
-3.2523513	山	-0.33223164
-3.2375205	经济	-0.4632861
-3.151794	民	-0.57482433
-3.1547966	获得	-0.4094112
-3.3634996	证	-0.48913565
-3.0905025	实	-0.594343
-3.120068	热	-0.7081308
-3.1780024	手机	-0.34518713
-3.151794	信息	-0.53612685
-3.353864	机构	-0.36391082
-3.2448726	认为	-0.4234851
-3.0689602	仍	-0.560279
-3.1593397	连	-0.36922297
-3.7321613	据	-0.43162075
-3.291808	建设	-0.39367628
-3.2357018	每	-0.680802
-3.3783667	南	-0.3865099
-3.1242602	传	-0.55224216
-3.0701983	收	-0.557393
-3.3758533	很多	-0.28517517
-3.1654718	发布	-0.5477267
-3.3001482	部分	-0.31715643
-3.1503005	太	-0.4561848
-3.2249465	作为	-0.22450586
-3.2638166	标准	-0.4738961
-3.3963802	信	-0.4299264
-3.1670187	低	-0.6494168
-3.2755926	主要	-0.45088542
-3.2214198	实现	-0.2932028
-3.6940355	如果	-0.30400172
-3.4319556	步	-0.4442581
-3.2267206	房地产	-0.55600286
-3.7555509	其中	-0.28506133
-3.4348168	现在	-0.27447742
-3.5343978	型	-0.35779083
-3.2110083	影响	-0.4826376
-3.184406	现	-0.54752153
-3.4319556	斯	-0.42134374
-3.2618845	汽车	-0.41122684
-3.1748357	就是	-0.19465473
-3.209297	应	-0.32506397
-3.4151735	这些	-0.23025467
-3.3733542	球	-0.43881595
-3.3261762	需求	-0.48420116
-3.1532927	清	-0.53020096
-3.6992815	份	-0.3765752
-3.3284173	查	-0.50394106
-3.1342022	曾	-0.34976232
-3.3001482	调查	-0.53216565
-3.2696645	光	-0.37900105
-3.1925454	火	-0.6170977
-3.3783667	龙	-0.3457081
-3.1473289	带	-0.40497124
-3.4645157	们	-0.28949225
-3.1145406	超	-0.44459844
-3.7739587	万元	-0.6341479
-3.2775867	社会	-0.47714582
-3.3043795	住	-0.37877706
-3.2231796	一百	-0.84763426
-3.2504694	站	-0.41698238
-3.3217285	政府	-0.2913606
-3.2816026	五十	-0.74073875
-3.3284173	刘	-0.5390781
-3.2214198	联	-0.5499478
-3.2876968	代	-0.42653722
-3.2876968	发现	-0.36087632
-3.337499	常	-0.48985165
-3.3733542	类	-0.42808533
-3.337499	图	-0.40370592
-3.209297	原	-0.4532739
-3.1764162	只	-0.34852836
-3.6494734	同时	-0.3512395
-3.2375205	爱	-0.46795017
-3.4614527	号	-0.43589163
-3.1414459	发生	-0.5264748
-3.2677064	权	-0.5055491
-3.2179215	致	-0.4676991
-3.2448726	红	-0.45701024
-3.3306699	取	-0.2948031
-3.3963802	管	-0.43856716
-3.4016674	钱	-0.39393434
-3.4124384	种	-0.39266887
-3.4898298	品	-0.41424412
-3.4151735	间	-0.40225276
-3.1172955	反	-0.64314413
-3.353864	观	-0.56456816
-3.4070194	上涨	-0.7532402
-3.3467746	苹果	-0.38123298
-3.3173258	基金	-0.5596063
-3.2599611	风险	-0.48139274
-3.391157	进一步	-0.470591
-3.1639307	均	-0.47604293
-3.3108044	达到	-0.45128334
-3.2161827	智能	-0.6096385
-3.151794	提供	-0.31196833
-3.8962119	亿元	-0.8485741
-3.5800393	色	-0.39086863
-3.3859954	北	-0.43156728
-3.291808	用户	-0.33065814
-3.173261	进入	-0.2821564
-3.111803	提	-0.78021353
-3.2179215	作	-0.45405143
-3.2816026	超过	-0.55100703
-3.380895	国内	-0.27627853
-3.552836	二零一五年	-0.44366527
-3.1892715	合作	-0.48440716
-3.7495842	由于	-0.14833687
-3.3634996	军	-0.3657737
-3.2025187	深	-0.6097071
-3.3261762	客	-0.35019067
-3.3885686	林	-0.29139745
-3.162395	卖	-0.42030174
-3.171692	才	-0.3210531
-3.1860218	没	-0.37912354
-3.4997163	消息	-0.74565643
-3.2214198	先	-0.41104493
-3.239347	早	-0.5822346
-3.342112	这一	-0.29564855
-3.2042034	非常	-0.36938
-3.7378914	亿	-0.57530385
-3.4801633	八月	-0.7067549
-3.5030622	第	-1.1288059
-3.4348168	售	-0.47222745
-3.285656	安全	-0.4000427
-3.258046	研究	-0.68140095
-3.437697	部门	-0.30294177
-3.298048	个人	-0.36860323
-3.1077287	失	-0.6773514
-3.1892715	正在	-0.26213956
-3.560436	馀	-0.44435626
-3.2231796	拉	-0.37328523
-3.3708696	楼	-0.40566185
-3.3001482	增加	-0.46561402
-3.4319556	选手	-0.28047764
-3.5343978	限	-0.57424843
-3.3610706	如	-0.2028601
-3.2375205	完成	-0.33397594
-3.230291	立	-0.5688008
-3.3467746	机器人	-0.3957529
-3.5681715	广州	-0.30237004
-3.4898298	户	-0.38710213
-3.3195214	见	-0.45476863
-3.239347	指	-0.42223805
-3.9045978	秒	-0.7832844
-3.5064344	省	-0.31959355
-3.3758533	收入	-0.36955315
-3.7436986	州	-0.29904774
-3.291808	金融	-0.490947
-3.1299136	获	-0.45197195
-3.4707072	像	-0.26479098
-3.2008405	变	-0.51543987
-3.4676003	边	-0.29108945
-3.4234834	产	-0.46225244
-3.6047947	尔	-0.39187035
-3.4234834	成交	-0.46693558
-3.5272365	世锦赛	-0.44846162
-3.293878	少	-0.519351
-3.3514879	提高	-0.31477943
-3.8879848	随着	-0.21858661
-3.24673	情况	-0.48476437
-3.4124384	标	-0.56273305
-3.1473289	预	-0.81037486
-3.3963802	美国	-0.3095377
-3.4348168	克	-0.3627473
-3.3834376	第二	-0.55240655
-3.4206958	节	-0.44366795
-3.5642865	虽然	-0.17086408
-3.3065104	关	-0.6213994
-3.2357018	国际	-0.44237405
-3.3352106	创新	-0.411054
-3.111803	之后	-0.5102359
-3.4645157	三星	-0.31714562
-3.3733542	远	-0.47547215
-3.8719835	务	-0.4504625
-3.4769883	报道	-0.59411585
-3.2110083	花	-0.35618812
-3.2504694	生产	-0.40710008
-3.4738364	九月	-0.64472276
-3.3514879	运动	-0.38684228
-3.3990157	宝	-0.44106662
-3.3001482	系统	-0.3872786
-3.356253	水平	-0.51550335
-3.3683991	互联网	-0.48770314
-3.4234834	审	-0.6856476
-3.2075925	感	-0.62353027
-3.315141	警方	-0.38383552
-3.349125	体育	-0.46148282
-3.437697	网友	-0.34642974
-3.7154102	讯	-0.6295457
-3.4833615	冠军	-0.46125612
-3.6090612	额	-0.41836292
-3.2755926	白	-0.4490738
-3.4833615	片	-0.4003651
-3.4614527	股	-0.3437608
-3.560436	资	-0.39494026
-3.4206958	关注	-0.54161525
-3.3352106	土地	-0.54085195
-3.214451	仅	-0.45609197
-3.437697	假	-0.40243632
-3.298048	存	-0.5057858
-3.2214198	经	-0.45506993
-3.4523914	希望	-0.32484397
-3.3758533	竞争	-0.5783807
-3.2599611	空	-0.44413376
-3.3885686	全球	-0.33813146
-3.3758533	规模	-0.3622883
-3.2897475	领域	-0.45185858
-3.3834376	人员	-0.2788444
-3.3217285	装	-0.38329935
-3.228502	表	-0.6376586
-3.6786678	质	-0.4185609
-3.3108044	包	-0.37491354
-3.291808	双	-0.43467557
-3.5800393	二零一四年	-0.36370423
-3.3261762	占	-0.39389172
-3.1958444	买	-0.4939059
-3.1701286	投	-0.543472
-3.2161827	使用	-0.3090331
-3.4523914	下降	-0.821105
-3.8064861	程	-0.33235857
-3.3683991	现场	-0.2991711
-3.2696645	共	-0.3763727
-3.3352106	以及	-0.12084792
-3.3086522	平台	-0.4341675
-3.342112	四十	-0.780404
-3.3239465	明显	-0.5650718
-3.2504694	便	-0.34566694
-3.239347	复	-0.4945755
-3.6992815	言	-0.34386224
-3.4707072	胜	-0.47624713
-3.337499	集	-0.4915734
-3.3963802	女子	-0.361616
-3.4206958	病	-0.39237347
-3.7099671	值	-0.32974967
-3.2523513	难	-0.47070676
-3.6310468	根据	-0.18682899
-3.2775867	活动	-0.47563145
-3.4234834	运	-0.5262414
-3.337499	支持	-0.36663768
-3.5236995	别	-0.42561355
-3.2677064	减	-0.6623003
-3.3514879	组	-0.37560493
-3.342112	救	-0.4977635
-3.5132585	包括	-0.13018693
-3.4097204	陈	-0.34322062
-3.437697	七月	-0.55185664
-3.3834376	其他	-0.22866993
-3.315141	继续	-0.29565856
-3.404335	投资者	-0.3353166
-3.4801633	告	-0.4175857
-3.2716317	创	-0.55494297
-3.3022587	拍	-0.47231656
-3.2795901	排	-0.51546884
-3.2775867	计划	-0.44161597
-3.3108044	快	-0.55727816
-3.455391	套	-0.5890707
-3.3834376	科	-0.36159518
-3.4206958	选	-0.40729845
-3.6177225	层	-0.3299699
-3.5201912	星	-0.34308863
-3.337499	成本	-0.40369073
-3.5881352	准	-0.4763792
-3.426289	上市公司	-0.32368124
-3.337499	存在	-0.34724197
-3.2485957	也是	-0.15438777
-3.3086522	实施	-0.3819389
-4.525096	但是	-0.22064579
-3.3467746	持续	-0.39319393
-3.2338905	一直	-0.38061845
-3.4070194	职	-0.53770196
-3.258046	参加	-0.34366032
-3.3284173	几	-0.57826257
-3.437697	集团	-0.34125617
-3.4405963	租	-0.5903108
-3.5064344	助	-0.42021602
-3.356253	一点	-0.6336858
-3.2876968	那	-0.57004964
-3.4405963	死	-0.40137598
-3.3352106	环境	-0.49038738
-3.2816026	自己的	-0.15138705
-3.295958	基本	-0.39295977
-3.214451	遭	-0.25608286
-3.3834376	眼	-0.5511066
-3.6687167	同比	-0.7113282
-3.4151735	中心	-0.3371696
-3.5064344	不少	-0.303762
-3.4016674	日本	-0.3245537
-3.3284173	调整	-0.40971026
-3.3783667	解	-0.3801578
-3.4179258	德	-0.32432294
-3.4676003	改革	-0.42948523
-5.106088	搜狐娱乐讯据	-1.7112709
-3.404335	初	-0.3651684
-3.4097204	十二	-0.6551962
-3.3444371	送	-0.3965941
-3.5236995	居	-0.42391175
-3.3758533	卡	-0.37477726
-3.4097204	副	-0.7921393
-3.4833615	波	-0.3184001
-3.437697	规定	-0.4829755
-3.3683991	科技	-0.36158058
-3.9307737	这是	-0.28996894
-3.5453665	去年	-0.3176215
-3.2897475	不同	-0.5307839
-3.6310468	我国	-0.26043564
-3.4348168	备	-0.44740492
-3.3859954	江	-0.41383827
-3.3239465	直	-0.6014905
-3.4291131	积极	-0.4179526
-3.4738364	持	-0.42639613
-3.3758533	保险	-0.5434948
-3.5963852	晚	-0.37837657
-3.5720916	器	-0.39814267
-3.2836246	基	-0.72286975
-3.5132585	一名	-0.24339683
-3.443515	最终	-0.24809605
-3.4464538	委	-0.47037637
-3.3963802	证券	-0.5591533
-3.3352106	演	-0.43884414
-3.285656	停	-0.5179676
-3.315141	跳	-0.5428645
-3.6494734	院	-0.3695243
-3.3022587	增	-0.5472306
-3.6355808	人士	-0.50859493
-3.3329344	参与	-0.32690227
-3.4801633	店	-0.3407001
-3.516711	园	-0.3842922
-3.3659425	财	-0.7844497
-3.5720916	条	-0.3409229
-3.5272365	环	-0.4146304
-3.4206958	模式	-0.4401899
-3.3239465	不断	-0.3646646
-3.4963956	问	-0.3767032
-3.5760472	它	-0.3116965
-3.5720916	需	-0.19356433
-3.4931002	求	-0.3255866
-3.644793	季	-0.5786526
-3.4584112	显示	-0.6563989
-3.337499	品牌	-0.3105154
-3.4676003	师	-0.37312937
-3.265757	引	-0.53256464
-3.4206958	福	-0.5962056
-3.6047947	使	-0.18093595
-3.2504694	都是	-0.1559872
-3.5720916	一位	-0.18929328
-3.3108044	能够	-0.2350606
-3.6310468	一线城市	-0.44872338
-3.2504694	降	-0.7077841
-3.6401625	牌	-0.3555079
-3.2897475	抢	-0.6127284
-3.7997828	除	-0.22196168
-3.298048	调	-0.49447006
-3.4070194	校	-0.4762826
-3.4206958	一起	-0.25671718
-3.3610706	两个	-0.2579312
-3.2231796	并不	-0.36093706
-3.4738364	办	-0.34436074
-3.426289	传统	-0.39994395
-3.356253	领	-0.43670952
-3.3129673	公开	-0.4576472
-3.4070194	争	-0.5734197
-3.3397994	设计	-0.38165906
-3.455391	一定	-0.52317774
-3.4865835	学生	-0.21068862
-3.3610706	飞	-0.37652513
-3.4676003	兴	-0.5447862
-3.3758533	方式	-0.43509758
-3.3834376	非	-0.28611997
-3.560436	景	-0.54011226
-3.4179258	不是	-0.15906364
-3.3467746	倒	-0.46773633
-3.509833	吴	-0.5259172
-3.6177225	话	-0.5229519
-3.2736075	推	-0.49377322
-3.6888523	项	-0.37473133
-3.6090612	债	-0.4512407
-3.3284173	开发	-0.39423037
-3.3683991	杀	-0.45106357
-3.4707072	甚至	-0.23995884
-3.2504694	真	-0.5747007
-3.2696645	追	-0.66013503
-3.437697	六十	-0.73045623
-3.2897475	改	-0.5244563
-3.3783667	设备	-0.34696487
-3.5416794	目标	-0.51929194
-3.4124384	一家	-0.2717325
-3.3261762	落	-0.48876154
-3.3634996	考	-0.5757196
-3.3885686	第三	-0.58226687
-3.3990157	短	-0.5628749
-3.426289	照	-0.48192668
-3.5380235	知	-0.38512084
-3.7997828	然	-0.28789392
-3.426289	征	-0.5664991
-3.5566194	地产	-0.29824254
-3.3783667	制度	-0.5061251
-3.6133702	百分之一	-1.0327404
-3.4234834	资产	-0.41981357
-3.6090612	往	-0.22143675
-3.5681715	轮	-0.31615734
-3.3043795	带来	-0.4186303
-3.4291131	所有	-0.24893607
-3.443515	涨	-0.57206947
-3.6786678	面积	-0.373436
-3.5566194	什么	-0.377614
-3.3239465	极	-0.66014445
-3.356253	网络	-0.28596237
-3.5840685	法院	-0.43300733
-3.4179258	负	-0.5687189
-3.4494123	云	-0.3209587
-3.4124384	控制	-0.3604617
-3.353864	协	-0.67761827
-3.6133702	算	-0.28965703
-3.5800393	许	-0.46942136
-3.5272365	镇	-0.33341384
-3.285656	跟	-0.30154276
-3.4801633	书	-0.45140302
-3.5132585	住宅	-0.56571925
-3.6133702	司机	-0.19655642
-3.4291131	满	-0.40786964
-3.4645157	换	-0.4456703
-3.4070194	密	-0.5502208
-3.6090612	深圳	-0.3323018
-3.5720916	影	-0.5671623
-3.3329344	离	-0.5020953
-3.3284173	选择	-0.2733876
-3.5453665	票	-0.37741685
-3.5201912	医院	-0.3034762
-3.4865835	配	-0.44870648
-3.9045978	小时	-0.41491538
-3.3284173	正式	-0.3633438
-3.7555509	环比	-0.5707112
-3.4931002	视	-0.39796638
-3.4769883	结	-0.4111514
-3.3733542	生活	-0.372714
-3.4016674	半	-0.56302214
-3.3733542	黄	-0.3309095
-3.4405963	版	-0.44719964
-3.4801633	街	-0.42903754
-3.4997163	今天	-0.33793244
-3.5416794	压力	-0.47880417
-3.391157	公布	-0.46262264
-3.4291131	十五	-0.65551734
-3.4464538	转型	-0.43086717
-3.654205	势	-0.42208344
-3.4151735	健康	-0.4224178
-3.4707072	战略	-0.46808338
-3.5308025	底	-0.3061003
-3.509833	即	-0.2643391
-3.437697	能力	-0.49646878
-3.455391	媒体	-0.3424253
-3.4645157	保护	-0.35157195
-3.4931002	这种	-0.17159449
-3.4291131	整体	-0.27498886
-3.1639307	专	-0.91654396
-3.849036	届	-0.42289585
-3.455391	提升	-0.36390254
-3.3444371	显	-0.68000704
-3.3306699	不能	-0.20430711
-3.6221187	计	-0.32318053
-3.5490851	十月	-0.5974802
-3.5343978	列	-0.502324
-3.3397994	亲	-0.6258355
-3.3634996	接受	-0.3512695
-3.5490851	击	-0.38210517
-3.404335	留	-0.49278754
-3.3834376	黑	-0.5184457
-3.3859954	防	-0.4616005
-3.3859954	青	-0.4993159
-3.5881352	原因	-0.55541575
-3.4234834	团	-0.43054476
-3.4523914	孩子	-0.28177547
-3.4179258	一年	-0.42044765
-3.4097204	商业	-0.3875576
-3.437697	格	-0.5012554
-3.5308025	世	-0.5208107
-3.552836	左右	-0.77092475
-3.3001482	比较	-0.31453106
-3.5453665	住房	-0.47241712
-3.7154102	决赛	-0.4951414
-3.4963956	式	-0.34801096
-3.4494123	县	-0.27387506
-3.6355808	规	-0.3949188
-3.560436	预计	-0.29583105
-3.404335	应用	-0.3830707
-3.404335	亚	-0.47066554
-3.6265597	毒	-0.38015208
-3.3733542	维	-0.5575527
-3.4206958	疑	-0.48002714
-3.5132585	贷款	-0.4026538
-3.315141	吃	-0.30976397
-3.391157	私	-0.5748614
-3.516711	板	-0.4645111
-3.552836	以上	-0.54587245
-3.349125	供	-0.6312618
-3.426289	酒	-0.39365214
-3.4865835	还有	-0.20751743
-3.5642865	导致	-0.15314768
-3.5840685	儿	-0.32427713
-3.4738364	导	-0.5958812
-3.509833	批	-0.38141242
-3.5642865	大学	-0.22943659
-3.4151735	不会	-0.257253
-3.3990157	交通	-0.47690344
-3.5681715	老人	-0.18019123
-3.9307737	害	-0.5159224
-3.4405963	行为	-0.4365676
-3.4769883	英	-0.47395474
-3.4494123	造	-0.4174809
-3.4464538	如何	-0.22837166
-3.4464538	消费者	-0.29931426
-3.6005695	待	-0.26114693
-3.6047947	按照	-0.156983
-3.4707072	巴	-0.47694713
-3.5064344	透露	-0.518829
-3.4676003	表现	-0.41951874
-3.6047947	服	-0.37515387
-3.5201912	阳	-0.40029272
-3.4405963	到了	-0.12610368
-3.4676003	建立	-0.25525808
-3.5343978	推动	-0.24874306
-3.4584112	奖	-0.53963935
-3.291808	整	-0.65327424
-3.7154102	段	-0.3375221
-3.298048	完	-0.5068922
-3.6494734	宁	-0.30395225
-3.5201912	以来	-0.47471535
-3.426289	声	-0.4538483
-3.4931002	十三	-0.64350957
-3.4405963	制造	-0.4371549
-3.5453665	赛事	-0.2828421
-3.4963956	二百	-0.7215017
-3.358655	货	-0.5815639
-3.404335	资源	-0.36808237
-3.342112	破	-0.44170916
-4.561956	所以	-0.16381067
-3.349125	招	-0.5605209
-3.3885686	石	-0.39926183
-3.4405963	来自	-0.2113916
-3.5642865	对手	-0.35744828
-3.5490851	判	-0.49908745
-3.4676003	运动员	-0.2995728
-3.4833615	一次	-0.18256365
-3.6736639	治	-0.30229086
-3.560436	杨	-0.29793704
-3.349125	推出	-0.2996854
-3.5132585	任	-0.29194775
-3.4738364	电视	-0.42069548
-3.4898298	出台	-0.40291896
-3.4963956	游	-0.26459596
-5.106088	搜狐娱乐讯	-0.5270407
-3.4833615	阶段	-0.45449007
-3.6221187	地方	-0.27065244
-3.7739587	销	-0.32917058
-3.3963802	精	-0.6160895
-3.913149	因此	-0.13086396
-3.353864	之前	-0.33261988
-3.6786678	除了	-0.08502668
-3.4494123	开发商	-0.24899894
-3.3514879	补	-0.5295702
-3.4865835	移动	-0.50367177
-3.6992815	容	-0.43702382
-3.3758533	成功	-0.34865585
-3.3885686	展	-0.47736388
-3.4523914	阿	-0.61429507
-3.958629	不过	-0.18613845
-3.3239465	认	-0.5464174
-3.380895	适	-0.8792275
-3.7495842	样	-0.47777706
-3.5840685	令	-0.21981584
-3.6310468	托	-0.43912262
-3.3885686	药	-0.43019015
-3.4319556	训练	-0.4089268
-3.358655	警	-0.44843167
-3.5720916	撞	-0.5052764
-4.8160186	台湾媒体报道	-2.1053772
-3.4070194	直接	-0.24933161
-3.4676003	保持	-0.33326834
-3.4645157	博	-0.38662773
-3.437697	解决	-0.3287729
-3.5881352	官	-0.37060967
-3.560436	剧	-0.40581566
-3.349125	提出	-0.3787011
-3.654205	百分之十	-0.87506694
-3.5201912	社	-0.58228433
-3.3659425	得到	-0.26703504
-3.6687167	比例	-0.37498587
-3.3783667	越	-0.38345158
-3.3834376	谈	-0.4765289
-3.4676003	神	-0.38249424
-3.5380235	温	-0.45412415
-3.5132585	优势	-0.5616997
-3.5881352	新闻	-0.5541548
-3.6837304	六月	-0.5404224
-3.4614527	上市	-0.48951274
-3.4898298	试	-0.52582484
-3.4833615	融资	-0.39416295
-3.5642865	资本	-0.34955552
-3.5236995	业绩	-0.34001732
-3.3834376	航	-0.5399371
-3.4464538	消费	-0.36349732
-3.6047947	春	-0.37039477
-3.5343978	面临	-0.30343166
-3.3963802	跑步	-0.32862145
-3.6005695	地区	-0.28431967
-3.5720916	盘	-0.38282108
-3.4997163	随	-0.4716615
-3.4405963	河	-0.4516524
-3.5681715	论	-0.36089367
-3.4865835	规划	-0.39827812
-3.3129673	是否	-0.23323582
-3.5132585	此前	-0.19101648
-3.4931002	爆	-0.44710743
-3.3758533	应该	-0.24966966
-3.654205	责任	-0.6756028
-3.6888523	库存	-0.38425425
-3.6837304	结果	-0.29875752
-3.4151735	连续	-0.29397315
-3.6401625	纳	-0.31744066
-3.6047947	十七	-0.57343936
-3.4931002	微	-0.4061193
-3.5201912	足	-0.42366546
-3.516711	近日	-0.33929598
-3.404335	差	-0.5248242
-3.7321613	兰	-0.33512765
-3.4865835	更多	-0.20337822
-3.437697	最高	-0.4066176
-3.7378914	成交量	-0.35480747
-3.5030622	代表	-0.3834955
-3.7209225	此次	-0.16688152
-3.404335	更加	-0.22078972
-3.6401625	油	-0.32635236
-3.5881352	历史	-0.46146607
-3.5343978	成绩	-0.39347374
-3.5453665	看到	-0.28988072
-3.426289	不仅	-0.34105837
-3.6177225	措施	-0.52546436
-3.5343978	利润	-0.3468551
-3.7997828	例	-0.55007243
-3.7436986	控	-0.24610938
-3.6687167	群	-0.26555717
-3.7739587	零点	-0.8944633
-3.4348168	只有	-0.22568741
-3.455391	细	-0.57032806
-3.8064861	止	-0.30380404
-3.6355808	特斯拉	-0.2782615
-3.349125	购买	-0.29831207
-3.4151735	经营	-0.2933952
-3.7436986	企	-0.2690469
-3.988394	亿美元	-0.79753834
-3.4319556	运营	-0.40762496
-3.4523914	一千	-0.830053
-3.455391	电子	-0.37331244
-3.560436	界	-0.36562216
-3.552836	诉	-0.44006437
-3.4898298	价值	-0.365774
-3.6310468	加强	-0.28432047
-3.358655	拿	-0.44260335
-3.4016674	独	-0.54639244
-3.7099671	友	-0.27320492
-3.4124384	功能	-0.44071504
-3.6589885	照片	-0.5624842
-3.6047947	空间	-0.49704927
-3.6687167	土	-0.40655124
-3.4963956	思	-0.62527
-3.5963852	桥	-0.377173
-3.5720916	考虑	-0.3192858
-3.4931002	只是	-0.1594788
-3.6177225	为了	-0.19710498
-3.552836	上升	-0.58953226
-3.6177225	房地产市场	-0.34666976
-3.4348168	全面	-0.26897082
-3.4898298	造成	-0.25318018
-3.4997163	婚	-0.53808534
-3.6177225	质量	-0.34384072
-3.7495842	件	-0.3983078
-3.5201912	食	-0.3861012
-3.5064344	形成	-0.2425362
-3.5132585	女儿	-0.22199114
-3.4676003	准备	-0.35432342
-3.5236995	压	-0.36056134
-3.5566194	支	-0.40985662
-3.5380235	范围	-0.5570973
-3.5308025	实际	-0.46195757
-3.4151735	无法	-0.19005764
-3.4614527	事件	-0.3082346
-3.5343978	充电	-0.5573082
-3.3610706	再次	-0.21451542
-3.5840685	何	-0.25602555
-3.4801633	之一	-0.90352714
-3.6221187	围	-0.41242656
-3.7154102	属	-0.18009736
-3.7436986	室	-0.3367035
-3.3758533	依然	-0.3333907
-3.5681715	重点	-0.39955127
-3.3634996	之间	-0.42677587
-3.6589885	众	-0.34160072
-3.5453665	医	-0.53091216
-3.5490851	乐	-0.36213568
-3.7045915	这次	-0.1648242
-3.8416483	涨幅	-0.45399344
-3.5840685	报告	-0.45622152
-3.9683259	料	-0.26551017
-3.4179258	客户	-0.25553524
-3.4206958	来说	-0.60921085
-3.8879848	证监会	-0.30800712
-3.5236995	必须	-0.22007345
-3.426289	全部	-0.18324296
-3.5308025	关系	-0.48807973
-3.4584112	来看	-0.86100733
-3.4801633	频	-0.7334567
-3.4997163	专家	-0.2428674
-3.4614527	志	-0.44469798
-3.4206958	广	-0.6985336
-3.988394	公里	-0.49349242
-3.6090612	露	-0.45101565
-3.4124384	干	-0.4433757
-3.7436986	百分之二十	-0.72336316
-3.437697	受到	-0.21838892
-3.7555509	中国队	-0.28114063
-3.4348168	村	-0.3098499
-3.7378914	人民	-0.7508565
-3.6401625	推进	-0.21206322
-3.6221187	股东	-0.35088238
-4.6022367	而且	-0.13847283
-3.6133702	网站	-0.30517066
-3.5380235	扩大	-0.39348477
-3.6786678	义	-0.39024806
-3.4645157	申请	-0.28569454
-3.6687167	十九	-0.6004011
-3.4614527	穿	-0.5127742
-3.4833615	员工	-0.2055453
-3.5566194	内容	-0.43385267
-3.6177225	双方	-0.22700746
-3.5308025	十六	-0.54254186
-3.4833615	亮	-0.49961758
-3.4833615	顶	-0.45343363
-3.5064344	文化	-0.32505754
-3.7099671	姐	-0.34507102
-3.5642865	稳定	-0.49333894
-3.516711	营	-0.4755019
-3.6786678	班	-0.31241113
-3.509833	软件	-0.25321692
-3.654205	事故	-0.5073307
-3.4234834	一样	-0.5263127
-3.4997163	明确	-0.41346303
-3.6401625	马拉松	-0.40464002
-3.6992815	完善	-0.2622763
-3.8343844	望	-0.31615207
-3.7154102	一种	-0.13421087
-3.5760472	儿子	-0.18375501
-3.4997163	相比	-0.46690288
-3.5236995	首次	-0.23333198
-3.5681715	付	-0.3957696
-3.5416794	养	-0.2944672
-3.6494734	整个	-0.1971885
-3.4963956	发行	-0.3551718
-3.5453665	银	-0.58552706
-3.3001482	的问题	-0.6922198
-3.6494734	最后	-0.26906624
-3.3239465	紧	-0.5172392
-3.552836	保障	-0.3567932
-3.6992815	上述	-0.17432657
-3.5881352	两人	-0.1728342
-3.6494734	罪	-0.57226175
-3.4291131	借	-0.48019895
-3.6310468	下滑	-0.5993031
-3.5453665	机制	-0.6162883
-3.4097204	参	-0.78371555
-3.4801633	刚	-0.3273809
-3.5881352	港	-0.4115239
-3.4179258	玩	-0.4159109
-3.5490851	昨天	-0.43246937
-3.5681715	十四	-0.6336912
-3.6005695	处于	-0.163317
-3.5308025	严	-0.63027024
-3.6638255	万达	-0.37900212
-3.5030622	升	-0.66313756
-3.5453665	减少	-0.33213004
-3.6177225	最大	-0.27978408
-3.5922406	这样	-0.23998158
-3.5800393	奥	-0.58682555
-3.6992815	奥运会	-0.3729022
-3.6589885	微软	-0.23615648
-3.516711	突破	-0.40277386
-3.7045915	促进	-0.20826046
-3.5030622	平均	-0.33149537
-3.6687167	微博	-0.298616
-3.455391	退	-0.46661666
-3.5236995	绝	-0.44590473
-3.4645157	宣布	-0.29278833
-3.5453665	十八	-0.68225837
-3.552836	法律	-0.36890078
-3.7099671	切	-0.41036204
-3.5642865	分析	-0.45722842
-3.5642865	血	-0.30710593
-3.4769883	执行	-0.31316316
-3.4206958	检	-0.6223304
-3.6736639	大家	-0.24624553
-3.4801633	完全	-0.29670605
-3.4291131	教	-0.4567144
-3.337499	有关	-0.46050146
-3.4464538	写	-0.44504374
-3.4898298	十分	-0.19766787
-3.5380235	农	-0.56011343
-3.5760472	十一	-0.3372523
-3.3963802	冲	-0.5317595
-3.5343978	孙	-0.4116752
-3.516711	有所	-0.37714475
-3.455391	惊	-0.5608838
-3.5490851	昨日	-0.35046738
-3.654205	出了	-0.18762559
-3.8064861	宗	-0.5298904
-3.4801633	区域	-0.2869594
-3.6401625	具体	-0.27626237
-3.437697	决定	-0.30547047
-3.4234834	仍然	-0.30573964
-3.516711	七十	-0.6366566
-3.3217285	承	-0.7401313
-3.4898298	夜	-0.32825193
-3.6494734	加快	-0.36097032
-3.6221187	布	-0.4445693
-3.3683991	吗	-1.4800624
-3.9045978	士	-0.31570175
-3.552836	三百	-0.54924524
-3.4584112	按	-0.2202679
-3.644793	笑	-0.41369978
-3.4523914	组织	-0.20081475
-3.5681715	湖	-0.35488433
-3.6221187	的成绩	-0.43058527
-3.7997828	五月	-0.43767425
-4.1055655	态	-0.38105714
-3.4348168	登	-0.58293414
-3.5343978	罗	-0.3241712
-3.7931814	趋势	-0.58211505
-3.6090612	三年	-0.29446533
-3.6888523	当时	-0.16597089
-3.6005695	过去	-0.3055283
-3.4963956	富	-0.3933625
-4.133335	幕	-0.6450615
-3.7321613	阵	-0.37507585
-3.4898298	三个	-0.36528987
-3.4464538	坐	-0.41317916
-3.6047947	拳	-0.58125293
-3.552836	支付	-0.30283415
-3.516711	条件	-0.5069425
-3.5840685	遇	-0.39173666
-3.5720916	居民	-0.2691235
-3.552836	家庭	-0.29545322
-3.5800393	举	-0.3430821
-3.516711	大量	-0.22312431
-3.6589885	伟	-0.33470267
-3.5343978	发挥	-0.29501802
-3.516711	利用	-0.14213914
-3.6310468	目	-0.54364455
-3.4206958	缺	-0.69202286
-3.7866788	二零一三年	-0.25111133
-3.5132585	松	-0.48597926
-3.5416794	状态	-0.4674357
-3.5236995	轻	-0.44768822
-3.6736639	置	-0.40485442
-3.4405963	处理	-0.42557624
-3.7739587	角	-0.3042852
-3.7099671	示	-0.39885187
-3.5840685	输	-0.39885843
-3.6638255	五年	-0.32105693
-3.6837304	艺	-0.51551354
-3.4931002	听	-0.41156083
-3.6494734	香港	-0.23668338
-3.6638255	作用	-0.7263937
-3.654205	针对	-0.15892364
-3.8565512	块	-0.30681306
-3.644793	机会	-0.45601174
-3.6090612	方案	-0.37492013
-3.4997163	暴	-0.57464516
-3.6687167	筹	-0.42220402
-3.6265597	意见	-0.5807729
-3.4614527	新的	-0.14406042
-3.3065104	的时候	-0.5368043
-3.4234834	评	-0.56987226
-3.509833	身体	-0.3018791
-3.7154102	记	-0.29714763
-3.4865835	模	-0.6372193
-3.7265055	一九	-0.7918147
-3.5922406	视频	-0.31132147
-3.6589885	卫	-0.5794842
-3.516711	二零	-0.7906894
-3.6265597	变化	-0.58599603
-3.7436986	丽	-0.27552778
-3.654205	无人机	-0.29622364
-4.178632	尽管	-0.1152696
-3.5881352	铁	-0.38805285
-3.5201912	骗	-0.3828594
-3.5416794	规范	-0.3347064
-3.5453665	稳	-0.61260074
-3.6687167	核心	-0.38267323
-3.4494123	或者	-0.111256875
-3.4738364	投入	-0.25634903
-3.988394	刻	-0.29381013
-3.7997828	利率	-0.2648171
-3.5453665	严重	-0.47978225
-3.6177225	八十	-0.47754332
-3.7378914	四点	-0.65496916
-3.6310468	期间	-0.30326226
-3.6265597	妻子	-0.16489114
-3.4676003	专业	-0.34816146
-3.6992815	程度	-0.47013688
-3.5840685	跌	-0.6015444
-3.654205	资本市场	-0.3148353
-3.516711	房产	-0.47788343
-3.5566194	语	-0.32905424
-3.6786678	笔	-0.3739725
-3.913149	纪录	-0.5968567
-3.6221187	体系	-0.5414013
-3.7931814	效	-0.5295252
-3.7436986	愿	-0.49016133
-3.5922406	奇	-0.36054483
-3.7265055	架	-0.2762399
-4.430236	中新网	-0.7505914
-3.8132944	采访	-0.64248013
-3.5236995	降低	-0.32785934
-3.9307737	会徽	-0.55330914
-3.7616005	哥	-0.23628858
-3.6265597	最新	-0.36438859
-3.7045915	字	-0.38526136
-3.6355808	起来	-0.46850055
-3.6687167	夫	-0.29454175
-3.6638255	座	-0.2798627
-4.031547	象	-0.48176485
-3.6310468	注	-0.5447711
-3.6494734	源	-0.302238
-3.5642865	抓	-0.47499037
-3.7866788	那么	-0.17337042
-3.5840685	当地	-0.25079897
-3.349125	涉	-0.5232771
-3.6992815	先生	-0.21361008
-3.4348168	也不	-0.29523543
-3.998787	具	-0.2202245
-3.3783667	优	-0.80488646
-3.5681715	形	-0.46340758
-3.6005695	海外	-0.3528295
-3.5416794	靠	-0.20046446
-3.6221187	乘客	-0.16928315
-3.5416794	这样的	-0.117885016
-3.7616005	下跌	-0.6328445
-3.4963956	开展	-0.1978529
-3.5760472	医疗	-0.44500273
-3.6133702	补贴	-0.35148057
-3.5840685	时代	-0.4745125
-3.8962119	倍	-0.60359466
-3.5720916	结构	-0.39816323
-3.5236995	拥有	-0.16840102
-3.6736639	其实	-0.26781932
-3.6047947	设	-0.35089496
-3.5881352	核	-0.56752646
-3.6940355	重要	-0.40689617
-3.4070194	摄	-0.65768045
-3.4405963	找	-0.2998645
-3.7265055	很大	-0.6807999
-3.5881352	供应	-0.3623536
-3.6494734	必	-0.4699546
-3.5490851	最大的	-0.19139332
-3.4931002	长期	-0.22222462
-3.6177225	预期	-0.38036293
-3.6786678	命	-0.42484772
-3.7677355	端	-0.28441045
-3.8719835	且	-0.11556991
-3.5343978	掉	-0.2952335
-3.6133702	确定	-0.34496167
-3.6047947	制定	-0.27582473
-3.5881352	案件	-0.37593722
-3.6265597	试点	-0.35595185
-3.5453665	团队	-0.25726905
-3.4833615	确	-0.5923104
-3.5963852	普	-0.43352616
-3.6638255	田	-0.30675095
-3.5380235	派	-0.3587919
-3.509833	永	-0.4897998
-3.8879848	馆	-0.26026347
-3.6992815	帮助	-0.28215677
-3.7495842	犯	-0.259394
-3.6265597	丈夫	-0.18390603
-3.644793	教练	-0.24775326
-3.455391	具有	-0.17834419
-3.6638255	加大	-0.30290085
-3.6047947	终	-0.56804526
-3.6265597	股份	-0.3089396
-3.509833	的发展	-0.43999028
-3.4645157	互	-0.5909511
-3.7321613	礼	-0.3625311
-3.6494734	股票	-0.35481036
-3.6494734	最近	-0.24938498
-3.6786678	折	-0.4640072
-3.6401625	缩	-0.5740969
-3.7495842	健	-0.46641523
-3.4151735	了一	-0.2578719
-3.560436	决	-0.52409154
-3.5201912	是一个	-0.13616861
-3.6786678	锁	-0.41571888
-3.5308025	介绍	-0.6295228
-3.5453665	有望	-0.29625377
-4.561956	北京时间	-0.8066286
-3.6638255	圈	-0.31214413
-3.7997828	访	-0.41753957
-3.7378914	当前	-0.22145343
-3.5681715	小区	-0.29157698
-3.6888523	经过	-0.16753319
-3.4963956	竞	-0.77110565
-3.7378914	继	-0.31427106
-3.4769883	产生	-0.2630144
-3.7099671	乡	-0.29439843
-3.7677355	关键	-0.50322723
-3.5308025	吸引	-0.4060138
-3.6310468	升级	-0.4463154
-3.5922406	购房	-0.41885903
-3.7099671	二点	-0.6675246
-3.4963956	举办	-0.39639592
-3.654205	京	-0.48981535
-3.6355808	厂	-0.36059952
-3.7045915	范	-0.3976161
-3.5840685	数量	-0.30884385
-3.6090612	统计	-0.6828975
-3.7045915	脸	-0.5003911
-3.8719835	金额	-0.35254285
-3.7436986	迷	-0.3517664
-3.5380235	请	-0.23577751
-3.5490851	更多的	-0.16689926
-3.9045978	伴	-0.32099342
-4.031547	百米	-0.5505271
-3.8064861	女士	-0.19479014
-3.4963956	回应	-0.3274078
-3.6494734	分别	-0.3075654
-3.5681715	参赛	-0.5250689
-3.6736639	险	-0.37032494
-3.7677355	库	-0.3439369
-3.6355808	有效	-0.3038548
-3.6005695	古	-0.28429747
-4.0430403	码	-0.28512394
-3.5720916	日前	-0.27479818
-3.8064861	刀	-0.2847358
-3.6837304	任何	-0.17375739
-3.7555509	负责人	-0.3447664
-3.6310468	高端	-0.3656588
-3.7739587	谢	-0.28597084
-3.6786678	驾驶	-0.47221386
-3.5453665	集中	-0.42050985
-3.7616005	一月	-0.4634519
-3.5416794	系	-0.15832774
-3.6401625	民警	-0.23786545
-3.4898298	积	-0.6460567
-3.6310468	排名	-0.5088129
-3.7378914	许多	-0.16513021
-3.8416483	晓	-0.3536765
-3.654205	脚	-0.28691116
-3.6177225	涉嫌	-0.30914432
-3.8202112	知道	-0.2434533
-3.7265055	金牌	-0.55448526
-3.5343978	基础	-0.65746504
-3.7154102	财政	-0.41452846
-3.82724	二手房	-0.49267045
-3.6837304	因素	-0.5404352
-3.5308025	越来越	-0.31908533
-3.5760472	急	-0.33258677
-3.6786678	欧	-0.61327875
-3.6005695	盛	-0.40155044
-3.4676003	举行	-0.47552025
-3.7677355	三点	-0.52547675
-3.6310468	电影	-0.30695564
-3.8565512	今日	-0.35017017
-3.6090612	统一	-0.3164001
-3.7866788	面对	-0.11591351
-3.4769883	购	-0.4096134
-3.6047947	改变	-0.43013382
-3.6940355	四个	-0.39394793
-4.430236	并且	-0.15009356
-3.443515	消	-0.6944756
-3.6355808	取得	-0.32210606
-3.6638255	护	-0.36072913
-3.7436986	厂商	-0.23373699
-3.6638255	索	-0.30964747
-3.5681715	也有	-0.19535825
-3.6310468	精神	-0.38206875
-3.5064344	创造	-0.4710446
-3.4738364	尽	-0.5701684
-3.5922406	披露	-0.36435318
-3.6888523	顾	-0.3489785
-3.8719835	洋	-0.27594605
-3.6265597	徐	-0.358092
-3.6992815	扣	-0.33512384
-3.6265597	市民	-0.13891838
-3.6786678	韩国	-0.26883858
-3.5453665	行政	-0.43064016
-3.5308025	快速	-0.27979043
-3.6401625	尚	-0.30044946
-3.6940355	十年	-0.3061653
-3.8202112	各地	-0.20323987
-3.8064861	枪	-0.2563397
-3.5201912	抗	-0.48728034
-3.6888523	衣	-0.6002002
-3.998787	随后	-0.149973
-3.6638255	朱	-0.464206
-3.6265597	工业	-0.38940382
-3.6310468	年轻	-0.4675638
-3.6589885	公安	-0.6792637
-3.5922406	修	-0.29687095
-3.7616005	尼	-0.40928042
-4.0669813	久	-0.41414222
-3.849036	获悉	-1.4896438
-3.7378914	易	-0.320986
-3.7555509	佳	-0.29242998
-3.5566194	顺	-0.4403121
-3.5490851	延	-0.518711
-3.6090612	逐渐	-0.2411743
-3.8202112	三月	-0.32357618
-3.6687167	政	-0.39541218
-3.5720916	体验	-0.33642465
-3.6090612	指出	-0.6561574
-3.7739587	良	-0.4973048
-3.6133702	充	-0.34798267
-3.5453665	成立	-0.33269358
-3.6687167	康	-0.34315366
-3.7677355	人民币	-0.38896504
-3.8962119	数据显示	-1.5262924
-3.6401625	指标	-0.33657938
-3.8879848	办法	-0.3549397
-3.5840685	真正	-0.26038355
-3.5800393	引发	-0.30794486
-3.5380235	归	-0.4152912
-3.849036	纪	-0.48225403
-3.6265597	建议	-0.310789
-3.6090612	画	-0.34540683
-3.7378914	若	-0.3508429
-3.5566194	翻	-0.3162323
-3.644793	内部	-0.26522058
-3.5416794	工程	-0.3355923
-3.4865835	也会	-0.18061799
-3.6047947	不得	-0.40287948
-3.5800393	单位	-0.22428577
-3.5881352	停车	-0.52760386
-3.6494734	喜	-0.4449355
-3.5963852	聚	-0.47295806
-3.6177225	方向	-0.42229444
-3.988394	下午	-0.44391364
-3.7154102	销量	-0.23058662
-3.7045915	人口	-0.35659078
-3.6736639	迎来	-0.24956906
-3.7321613	中介	-0.2812402
-3.7321613	素	-0.35520628
-3.6589885	速度	-0.254175
-3.7321613	豪	-0.38052833
-4.0094347	胎	-0.35476887
-3.7045915	中央	-0.2909393
-3.6992815	五百	-0.500706
-3.780272	绿地	-0.32645878
-3.6992815	力度	-0.50939167
-3.6687167	苏	-0.3382065
-3.8064861	潮	-0.44360304
-3.6005695	逃	-0.5482831
-3.7099671	苦	-0.42541003
-3.5642865	采取	-0.20570894
-3.5132585	拿到	-0.29051304
-3.509833	患	-0.5529963
-3.6355808	研发	-0.23951112
-3.921872	败	-0.36643714
-3.5642865	联合	-0.29412675
-3.6589885	中小	-0.6067812
-3.6736639	汉	-0.295856
-3.7378914	慢	-0.3634793
-3.6221187	讲	-0.41100797
-3.5963852	迅速	-0.25516415
-3.6133702	挑战	-0.42790693
-3.5963852	限制	-0.38802737
-3.5272365	官方	-0.2504873
-3.9683259	责	-0.3833306
-3.6090612	封	-0.325676
-3.6786678	渠道	-0.36253822
-3.4997163	挂	-0.5088503
-3.7265055	网上	-0.23057447
-3.6494734	断	-0.29978496
-3.6494734	合理	-0.38422337
-3.5030622	并没有	-0.14343566
-3.7045915	过程	-0.44153035
-3.6177225	庆	-0.36527896
-3.5308025	旅游	-0.2870679
-3.6355808	信托	-0.3512845
-3.6687167	多个	-0.18604225
-3.6047947	布局	-0.31109753
-3.5416794	同样	-0.24682768
-3.6589885	充分	-0.4218995
-3.7154102	巨大	-0.562403
-3.7045915	近期	-0.1497149
-3.9307737	本次	-0.2676181
-3.5922406	乘	-0.43590105
-3.6355808	朋友	-0.35056466
-4.079466	询	-0.33588085
-3.5380235	跨	-0.55770326
-4.8160186	香港媒体报道	-2.0929615
-3.5800393	结束	-0.5724983
-3.949144	辆	-0.47253782
-3.9307737	台湾	-0.32100385
-3.6047947	取消	-0.29533267
-3.5681715	收购	-0.22281238
-3.5800393	相当	-0.37451404
-3.5642865	夺冠	-0.55027086
-3.7436986	雨	-0.304358
-3.8132944	森	-0.31590712
-3.6992815	死亡	-0.49601647
-3.6401625	逐步	-0.21237156
-3.5963852	难以	-0.17066321
-3.6888523	入市	-0.5396347
-3.6047947	大幅	-0.46544635
-3.7265055	工厂	-0.2603399
-4.3768463	比如	-0.12175137
-3.5642865	在中国	-0.18422006
-3.6310468	威	-0.3774587
-3.7555509	读	-0.2550469
-3.7154102	纷纷	-0.16638328
-3.6221187	脱	-0.35689807
-3.5681715	几乎	-0.2905655
-3.6177225	改善	-0.38478816
-3.8132944	免	-0.39186412
-3.5201912	冰	-0.47381538
-3.6992815	戴	-0.44603616
-3.8202112	回暖	-0.52141804
-3.6265597	不足	-0.4939621
-3.780272	明年	-0.25215438
-3.7321613	峰	-0.28835207
-3.8202112	一辆	-0.23237018
-3.6133702	捐	-0.5551007
-3.6133702	操作	-0.4403316
-3.6589885	不到	-0.21502465
-3.7209225	四百	-0.52140373
-3.8343844	百万	-0.33734673
-3.5800393	收费	-0.31463408
-3.6005695	过程中	-0.42669564
-3.6687167	误	-0.3824215
-3.6310468	食品	-0.40193868
-3.6355808	一万	-0.43592158
-3.5963852	学校	-0.16605951
-3.7495842	境	-0.4703722
-3.7866788	播	-0.29792047
-3.4464538	激	-0.90302074
-3.7045915	雪	-0.25868267
-3.5963852	刷	-0.50715333
-3.8719835	斗	-0.25923204
-3.6736639	游戏	-0.27477133
-3.6355808	涉及	-0.23202752
-3.4865835	的情况下	-0.8186639
-3.6589885	工作人员	-0.23102039
-3.8064861	六点	-0.6542284
-3.5642865	活	-0.4301321
-3.7321613	交易所	-0.16937838
-3.7099671	储	-0.5428897
-3.7997828	守	-0.25546563
-3.5760472	开放	-0.3511072
-3.780272	观众	-0.2359022
-3.8799105	手表	-0.26008862
-3.7495842	脑	-0.31560668
-3.7154102	木	-0.31300154
-3.7154102	鼓励	-0.23537408
-3.6786678	建筑	-0.3565839
-3.6837304	附近	-0.35977155
-3.7997828	孙杨	-0.22964044
-3.7378914	资格	-0.5605474
-3.8343844	五点	-0.5247801
-3.6589885	综合	-0.26005107
-4.0430403	上午	-0.56558967
-3.5642865	创业	-0.5336374
-3.7436986	盖	-0.33124188
-3.5132585	暂	-0.81714743
-3.6310468	皮	-0.34354785
-3.7997828	饭	-0.28806382
-3.6837304	楼盘	-0.24455464
-4.02035	平方米	-0.65734136
-3.8879848	千万	-0.3236315
-3.7154102	实力	-0.32531387
-3.7495842	较大	-0.5060502
-3.7099671	测	-0.35953918
-3.6310468	滑	-0.47527313
-3.7616005	贵	-0.36507064
-3.7866788	拟	-0.38165045
-3.7866788	载	-0.2664128
-3.849036	组委会	-0.21639696
-3.6589885	经验	-0.58553934
-3.6047947	属于	-0.098900504
-3.7154102	受伤	-0.44498307
-3.5922406	异	-0.64352614
-3.4319556	也在	-0.14983836
-3.644793	侵	-0.5194916
-3.6090612	怎么	-0.25161815
-3.560436	采用	-0.15185419
-3.7099671	结合	-0.27466482
-3.7099671	智能手机	-0.32581094
-3.8202112	人们	-0.2292855
-3.6177225	申	-0.52648276
-3.6589885	赔偿	-0.32981074
-3.6133702	启动	-0.25462306
-3.5132585	将在	-0.1886614
-3.7045915	丁	-0.43660408
-3.6940355	舞	-0.39255467
-3.998787	意味着	-0.118836686
-3.6133702	重大	-0.26620352
-3.6177225	一般	-0.25509948
-3.5308025	都有	-0.13734266
-3.9398618	庭	-0.49631858
-3.7739587	最低	-0.68959016
-3.6310468	了解	-0.28489998
-3.6888523	母	-0.43724406
-3.6047947	竟	-0.34582198
-3.8799105	榜	-0.5428432
-3.5840685	隐	-0.6966848
-3.988394	妇	-0.26490858
-3.6265597	出现了	-0.15941107
-3.8416483	彩	-0.39116585
-4.982232	公司股票走势	-0.57528955
-3.5416794	蓝	-0.570062
-3.6837304	陷	-0.5110681
-3.7739587	收益	-0.39090496
-3.7099671	游客	-0.18809532
-3.8799105	果	-0.45555502
-3.8343844	困	-0.4376632
-3.780272	扬	-0.46725792
-3.7209225	草	-0.3889325
-3.6355808	偷	-0.24117494
-3.6221187	似乎	-0.19879627
-3.8132944	觉得	-0.18245639
-3.6837304	利益	-0.3525045
-3.921872	首付	-0.5407585
-3.6177225	医生	-0.13707305
-3.5681715	印	-0.6146809
-3.8202112	南京	-0.25038326
-3.5760472	违法	-0.54955375
-3.8565512	验	-0.44646442
-3.8799105	席	-0.5345166
-3.6589885	有些	-0.11026471
-3.7209225	二零零	-0.93765676
-3.6265597	职业	-0.41794315
-3.5922406	缓	-0.6698341
-3.6589885	赶	-0.5188819
-3.654205	养老	-0.48274744
-3.6940355	购房者	-0.2955593
-3.8132944	重要的	-0.22807206
-3.6888523	各种	-0.108473085
-3.6005695	出来	-0.5738965
-4.211687	察	-0.3766392
-3.82724	档	-0.26216358
-3.7154102	债券	-0.38575765
-3.5681715	教育	-0.2681655
-3.5566194	突然	-0.18255576
-3.7616005	两年	-0.29560173
-3.7099671	对方	-0.18103778
-3.7616005	监	-0.91604054
-3.6177225	事业	-0.40005106
-3.5380235	将会	-0.18414612
-3.9307737	速	-0.29234213
-3.8719835	弟	-0.30803663
-3.644793	多年	-0.4952423
-3.7616005	五个	-0.41669282
-3.6133702	故	-0.76244795
-3.6047947	返	-0.40975136
-3.9398618	末	-0.24475096
-3.7997828	沙	-0.22303672
-3.6940355	既	-0.42450395
-3.6940355	现象	-0.49566057
-3.6687167	费用	-0.30375144
-3.6837304	身份	-0.33438098
-3.7866788	成都	-0.26028156
-3.8565512	大部分	-0.2362048
-3.5720916	告诉	-0.38765287
-3.560436	相对	-0.23306984
-3.7099671	宏	-0.49411434
-4.0669813	床	-0.32770324
-3.7495842	谁	-0.34179714
-4.0094347	闭	-0.3578585
-3.7154102	豪宅	-0.32182285
-3.7265055	另一	-0.594972
-3.82724	七点	-0.50024873
-3.6355808	引起	-0.24406762
-3.7866788	上半年	-0.17109133
-3.8565512	善	-0.3373576
-3.7154102	丰	-0.5990107
-3.6265597	宽	-0.4613943
-3.7099671	雷	-0.314092
-3.7378914	充电桩	-0.37070155
-3.7209225	农业	-0.38015947
-3.8202112	商品房	-0.50335443
-3.5720916	遭遇	-0.18602851
-3.8132944	美元	-0.584715
-3.5922406	他的	-0.101412214
-3.654205	两千	-0.43486717
-3.5343978	签	-0.501813
-3.7931814	肉	-0.22362484
-3.7555509	杰	-0.23384437
-3.6090612	安排	-0.29092428
-3.7154102	田径	-0.36472344
-3.5416794	绿	-0.7435931
-3.6005695	融	-0.7394433
-3.7099671	高达	-0.36498016
-3.7555509	迪	-0.28657788
-3.7099671	刺激	-0.34018114
-3.7265055	亚洲	-0.3617143
-3.8343844	晒出	-0.33240145
-4.133335	千元	-0.41171625
-4.031547	万平方米	-1.0170034
-3.8565512	两名	-0.16362277
-3.7616005	夏	-0.41179085
-3.6837304	呼	-0.42568508
-3.6687167	瑞	-0.29057607
-3.6888523	胡	-0.3071585
-3.6401625	领导	-0.20832223
-4.194845	云南	-0.21472691
-3.4997163	的重要	-0.3187156
-3.7495842	工资	-0.36060378
-3.5760472	禁	-0.43448082
-3.5380235	武	-0.5030162
-3.978244	厅	-0.21191283
-3.6736639	旗	-0.50618416
-3.7677355	荣	-0.33901554
-3.6133702	抱	-0.39716277
-3.988394	兵	-0.1328141
-3.7495842	燃	-0.5485203
-3.6940355	女孩	-0.13102154
-3.7321613	评估	-0.35195142
-3.864199	女排	-0.32855192
-3.921872	总经理	-0.26926208
-4.194845	环比上涨	-0.7632815
-3.849036	百分之三十	-0.6131533
-3.7997828	一场	-0.11192835
-3.6786678	探	-0.46981132
-3.7866788	餐	-0.4309867
-3.9398618	爷	-0.23998103
-3.5922406	普遍	-0.22555637
-3.8565512	净利润	-0.35430267
-3.6090612	特别	-0.20229152
-4.0094347	一日	-0.42114088
-3.7045915	业主	-0.13070762
-3.921872	链	-0.38096806
-3.5800393	即将	-0.21292539
-3.7045915	毛	-0.48556048
-3.6310468	赞	-0.45630616
-3.949144	宇	-0.19629157
-3.6837304	妈妈	-0.18076581
-3.6992815	符合	-0.2024751
-3.8799105	容易	-0.26952234
-3.7677355	保证	-0.22139408
-3.7555509	经历	-0.36801666
-3.5343978	进行了	-0.11809316
-3.5236995	炒	-0.80846095
-3.5064344	计算	-0.5099768
-3.8132944	途	-0.4421142
-3.6090612	抵	-0.652491
-3.6786678	潜	-0.8668262
-3.6638255	办公	-0.4963742
-3.7378914	电话	-0.2683021
-3.7677355	第四	-0.4488523
-3.7265055	浪	-0.45459777
-3.7931814	玉	-0.26956296
-3.5642865	骨	-0.32732975
-3.7265055	污染	-0.41460967
-3.8879848	距离	-0.22521466
-3.780272	电池	-0.2898178
-4.229209	述	-0.22135124
-3.6736639	每年	-0.23096
-3.921872	使得	-0.13744424
-3.5800393	只能	-0.1526052
-3.7099671	队员	-0.21147513
-3.6786678	动作	-0.33876386
-3.7436986	摩	-0.85276186
-3.8719835	乐视	-0.3845164
-3.7099671	广告	-0.33580115
-3.7931814	处罚	-0.4289465
-3.8202112	卫生	-0.50673294
-3.7378914	正常	-0.35469234
-3.6837304	母亲	-0.18508287
-3.5236995	也将	-0.14128493
-3.6992815	嘉	-0.5802806
-3.7555509	散	-0.3722669
-3.6355808	房屋	-0.23284486
-3.6940355	坚持	-0.15705945
-3.8565512	协会	-0.23461336
-3.6837304	检查	-0.29463604
-3.7265055	环保	-0.3430319
-3.6177225	很难	-0.19662227
-3.7045915	股权	-0.46303505
-3.6888523	共同	-0.16450186
-3.5760472	再度	-0.15068242
-3.6265597	汇	-0.37407637
-3.7555509	损	-0.6085248
-3.5760472	洗	-0.48598343
-3.7739587	奖牌	-0.578244
-3.6837304	的城市	-0.5931396
-3.7378914	五万	-0.32691753
-3.7436986	限购	-0.5280075
-3.7099671	攻	-0.38626444
-3.9683259	泳	-0.38548216
-3.4997163	虚	-0.8413681
-3.8719835	低于	-0.20795327
-3.6401625	登记	-0.28192794
-3.8962119	增速	-0.291114
-3.7436986	六个	-0.49059996
-4.0094347	洲	-0.2033303
-3.7321613	旅	-0.64261466
-3.8064861	梁	-0.33093664
-3.7616005	含	-0.33294886
-3.7265055	状况	-0.3087646
-3.7154102	游泳	-0.43223482
-3.9307737	只要	-0.18200578
-3.5416794	临	-0.5568223
-3.7997828	身亡	-0.5015858
-3.7739587	任务	-0.36882755
-3.780272	公告	-0.5687684
-4.0430403	本届	-0.46257856
-3.7997828	期货	-0.41759783
-3.7495842	公共	-0.41362023
-3.8719835	该公司	-0.15842943
-3.7616005	三零	-0.40991673
-4.2665277	记者从	-0.15571614
-3.4898298	的方式	-0.3834421
-4.2665277	序	-0.39831346
-3.7677355	戏	-0.32168972
-3.8202112	秀	-0.3787268
-3.6638255	冷	-0.42999947
-3.6265597	叫	-0.20634916
-3.8416483	坏	-0.37987825
-3.8132944	烟	-0.29981753
-3.780272	赵	-0.27014896
-3.998787	镜	-0.35047778
-3.780272	位置	-0.47327542
-4.1479154	益	-0.38040674
-3.7378914	家人	-0.16776066
-3.7616005	原则	-0.57380813
-3.9683259	息	-0.31563976
-3.6940355	及时	-0.14188439
-4.2665277	媒	-0.33774495
-3.6355808	贴	-0.35347345
-3.82724	驾	-0.36619815
-3.6940355	芯片	-0.30287582
-3.8064861	损失	-0.30264595
-3.6589885	多次	-0.15968195
-3.7997828	周期	-0.271061
-3.7154102	现金	-0.3626952
-3.9045978	静	-0.37028497
-3.8202112	仪	-0.40486735
-4.178632	尤其是	-0.12760672
-3.8132944	努力	-0.3385056
-3.5681715	的影响	-0.5996593
-3.8202112	数字	-0.31183803
-3.864199	四月	-0.36199346
-3.7321613	儿童	-0.20141631
-3.7931814	通知	-0.44973826
-3.6786678	营销	-0.26555702
-3.6310468	自身	-0.21578072
-3.7555509	占比	-0.19960238
-3.7866788	旧	-0.24528152
-3.780272	藏	-0.2581091
-3.849036	八点	-0.51644826
-3.6177225	重新	-0.1849915
-3.8064861	房子	-0.3041045
-3.8343844	了解到	-1.0806117
-3.8799105	内地	-0.21831359
-3.8799105	比赛中	-0.2991262
-4.329307	个百分点	-1.2595783
-4.0923195	凌晨	-0.44398102
-3.6589885	注册	-0.40732366
-3.7321613	普通	-0.3427364
-3.6494734	执法	-0.30097175
-3.8202112	超级	-0.4192074
-3.6992815	执	-0.5719829
-4.133335	分钟	-0.45076692
-3.913149	年报	-0.45814312
-3.8799105	冠	-0.4370626
-4.079466	材	-0.21015196
-3.849036	哪	-0.59002674
-3.6687167	盗	-0.48072076
-3.6589885	怀	-0.46840173
-3.988394	章	-0.3259907
-3.8799105	郭	-0.36633956
-3.7436986	树	-0.34920904
-3.7209225	痛	-0.37928927
-3.849036	家电	-0.30950043
-3.6265597	确实	-0.23528151
-3.8343844	董事长	-0.25427237
-3.7154102	召开	-0.41788757
-3.780272	境外	-0.41094947
-3.6265597	的时间	-0.42380333
-3.6786678	才能	-0.14257672
-3.921872	刑	-0.59070677
-3.6133702	梦	-0.4393059
-3.6047947	帮	-0.25465345
-3.5380235	呢	-1.5130188
-3.9683259	寿	-0.30269107
-3.8064861	恩	-0.3233077
-3.7321613	狂	-0.33663306
-3.988394	雅	-0.30912414
-3.7436986	概念	-0.4511026
-3.988394	态势	-0.7476405
-3.780272	质疑	-0.31413984
-3.6992815	车辆	-0.18214077
-3.6638255	证明	-0.27604273
-3.5642865	做出	-0.23763482
-3.7099671	每天	-0.18306534
-3.7436986	满足	-0.15583226
-3.7099671	物业	-0.2726337
-4.0923195	贷	-0.32057273
-3.8719835	关于	-0.04033076
-3.7045915	交警	-0.20091897
-3.7677355	能源	-0.39924616
-3.7436986	菜	-0.27456522
-3.8202112	叶	-0.36353087
-3.8064861	狗	-0.2830159
-3.8565512	俄罗斯	-0.33072805
-3.7099671	固	-0.4553179
-4.054846	国务院	-0.25826818
-3.7378914	泰	-0.3186866
-3.6992815	承担	-0.30622876
-3.7378914	效果	-0.37425557
-3.958629	九点	-0.580904
-4.7519355	而是	-0.124437876
-3.6940355	接近	-0.2024963
-3.8202112	四年	-0.20527165
-4.0923195	主任	-0.19973423
-3.6940355	生态	-0.45587015
-3.5922406	更是	-0.100679755
-3.8565512	十万	-0.28919017
-3.8565512	根	-0.23661202
-4.0430403	如今	-0.17979807
-3.6177225	了一个	-0.08596138
-3.7931814	野	-0.39883927
-3.988394	剩	-0.47000927
-4.0430403	宜	-0.30350637
-3.7555509	课	-0.39231128
-3.988394	二零一二年	-0.2209733
-3.6589885	偏	-0.32246256
-3.7099671	成熟	-0.55342185
-3.6005695	都在	-0.08967672
-3.8064861	意义	-0.58537173
-3.9045978	目的	-0.45667946
-3.6355808	喝	-0.26299515
-3.5881352	遗	-0.6545746
-3.6940355	替	-0.32369453
-4.211687	趣	-0.6210154
-4.0430403	籍	-0.2030795
-3.8416483	谷歌	-0.25320113
-3.7436986	监测	-0.37896585
-3.516711	搜狐科技	-1.6692606
-3.7495842	材料	-0.28640577
-4.02035	七年	-0.24523577
-3.7154102	科学	-0.36751524
-3.7209225	保障房	-0.20448479
-3.7866788	录	-0.4016416
-3.4833615	的情况	-0.56426793
-3.8719835	韩	-0.27138916
-3.6221187	并未	-0.14446568
-3.849036	净	-0.4347608
-3.7997828	估	-0.79592556
-3.8202112	避	-0.27091682
-3.7265055	哈	-0.5034678
-3.8565512	新能源汽车	-0.28727132
-3.6888523	成了	-0.11022784
-3.8879848	图片	-0.40548176
-3.6090612	营业	-0.8007063
-3.7739587	相应	-0.4165846
-3.8343844	应当	-0.18787654
-3.9045978	百分之五十	-0.56882954
-3.7265055	违	-0.71222293
-3.6133702	搭	-0.56303966
-4.02035	族	-0.23557295
-3.7154102	砸	-0.32776892
-3.8565512	隔	-0.33958465
-3.7378914	呈现	-0.3302309
-3.7436986	征收	-0.23777609
-3.7866788	名单	-0.607619
-3.7495842	规则	-0.35177007
-3.8416483	女生	-0.19051789
-3.7209225	打造	-0.19607867
-3.7555509	操	-0.4324782
-3.6133702	就会	-0.13296269
-4.2665277	杆	-0.30824217
-3.7677355	齐	-0.25638694
-4.0430403	奋	-0.6166126
-3.6133702	恶	-0.5553175
-3.8962119	新股	-0.48907703
-3.8565512	影片	-0.3804801
-3.7616005	女性	-0.21223676
-3.949144	土地市场	-0.28007403
-3.8879848	秋	-0.33454764
-3.978244	鲜	-0.30697268
-3.7866788	感觉	-0.23738867
-3.7931814	冲击	-0.37583265
-3.7099671	这么	-0.31570664
-3.7209225	已被	-0.26489025
-3.978244	百分之四十	-0.5917783
-3.7209225	做好	-0.163162
-3.7154102	大型	-0.25332543
-3.7495842	冒	-0.43931895
-3.8565512	鲁	-0.2633596
-3.8565512	世界杯	-0.31390646
-3.7866788	农村	-0.20866148
-3.7154102	宣传	-0.28313947
-3.7616005	酒店	-0.21654147
-3.5963852	都会	-0.1206242
-3.7265055	在微博	-0.6149413
-3.949144	中国女排	-0.21890092
-3.6401625	并非	-0.16525589
-3.7866788	促	-0.40511674
-4.178632	觉	-0.23810905
-4.02035	曝	-0.23834977
-3.864199	几个	-0.25714388
-3.7997828	歌	-0.31592706
-3.8719835	腿	-0.21923837
-3.8879848	弱	-0.4459517
-3.6687167	赚	-0.54690003
-3.7555509	诈骗	-0.2496073
-3.9307737	激烈	-0.800693
-3.654205	错	-0.3636764
-3.6047947	而言	-0.564147
-3.7616005	落实	-0.25404254
-3.8416483	动力	-0.32629567
-3.8343844	硬件	-0.26927456
-3.6638255	编	-0.54068017
-3.8416483	伦	-0.50027966
-3.949144	公积金	-0.5404932
-3.6992815	混	-0.5665083
-3.9398618	业内人士	-0.30202416
-3.7045915	群众	-0.21693553
-3.7321613	新增	-0.22395973
-3.9045978	业内	-0.20234713
-3.7045915	不可	-0.31551796
-3.7265055	至少	-0.22394574
-4.6022367	从而	-0.16953735
-3.7099671	自然	-0.29887253
-3.849036	董事	-0.4436607
-3.6401625	拆	-0.4254316
-3.6888523	缴	-0.6271993
-3.8132944	辉	-0.30338037
-3.6837304	奔	-0.59724283
-4.3768463	中原地产	-0.65936726
-3.7677355	粉丝	-0.20685501
-3.654205	曝光	-0.42204782
-3.780272	具备	-0.14972258
-3.8565512	拿地	-0.28605056
-3.7321613	可能会	-0.15315431
-3.6736639	环节	-0.3458073
-3.7866788	每个	-0.25266752
-3.7997828	用于	-0.08404405
-4.1192284	同比增长	-0.50978655
-3.6940355	专利	-0.29991415
-3.8132944	利好	-0.5568858
-4.02035	北京市	-0.20165017
-3.7739587	总体	-0.2467554
-3.864199	地块	-0.30232885
-3.780272	信用	-0.5594675
-3.6589885	摆	-0.5264137
-3.7866788	珠	-0.37344444
-3.6494734	骑	-0.48314804
-4.133335	捕	-0.45245564
-3.7378914	父亲	-0.17066592
-3.6736639	结婚	-0.37440002
-3.8565512	注意	-0.39723462
-3.8565512	今	-0.29422832
-3.6786678	找到	-0.18329605
-3.7677355	裁	-0.75753754
-3.7154102	左	-0.33029744
-3.8343844	牛	-0.27552894
-3.921872	耗	-0.3311781
-3.8565512	敏	-0.32200837
-3.998787	岛	-0.221041
-3.9307737	恋	-0.29696715
-4.3768463	新京报	-0.5480447
-3.82724	严格	-0.38015532
-3.5760472	巨	-0.6887493
-3.7436986	公交	-0.301803
-3.921872	陆	-0.16002442
-3.7436986	人类	-0.23951246
-3.7045915	高度	-0.3517397
-3.780272	一套	-0.26815766
-3.7677355	加速	-0.16002442
-3.864199	多家	-0.22734973
-3.913149	二月	-0.3142665
-3.7997828	智	-0.39274237
-3.921872	启	-0.29800534
-3.978244	偿	-0.39444107
-3.7045915	恐	-0.48613375
-3.7436986	拼	-0.34867367
-3.8343844	棒	-0.4425699
-4.031547	宁泽涛	-0.14896026
-3.7866788	夺	-0.40069276
-3.8565512	资料	-0.34625217
-4.079466	几年	-0.26648873
-3.7154102	终于	-0.16238326
-3.8719835	三名	-0.2014725
-3.780272	予	-0.37854517
-3.7378914	还将	-0.109622456
-3.7265055	坚	-0.5754105
-3.7495842	史	-0.3979334
-3.958629	晨	-0.3460124
-3.8565512	侧	-0.33549505
-3.8879848	厚	-0.5327099
-4.0430403	合肥	-0.19710311
-3.8879848	依法	-0.23971267
-3.849036	节目	-0.25129688
-3.7209225	持有	-0.27964026
-3.921872	新房	-0.51232517
-3.8879848	山东	-0.21857004
-3.5416794	施	-0.6435203
-3.7321613	还要	-0.1369415
-3.7099671	简	-0.58572733
-3.8343844	郑	-0.32597104
-3.9398618	雄	-0.18865132
-3.8416483	曲	-0.35410726
-3.9307737	薪	-0.39775613
-3.949144	堂	-0.26853183
-3.921872	答	-0.3578866
-3.7436986	反映	-0.37293056
-3.7931814	财务	-0.30401114
-3.6638255	尚未	-0.18313822
-3.7616005	移	-0.50111204
-3.849036	一半	-0.49130553
-3.654205	音	-0.34594858
-3.849036	账	-0.38826293
-3.998787	幸	-0.4303664
-4.1192284	枚	-0.6339417
-3.7616005	勇	-0.3774092
-3.8879848	味	-0.3212194
-3.7209225	记录	-0.37617284
-3.921872	降息	-0.37385902
-3.9398618	条例	-0.27504563
-4.133335	机关	-0.1833928
-3.7866788	合同	-0.350365
-3.8343844	广场	-0.3390876
-3.7677355	略	-0.45411873
-3.8064861	揭	-0.6076736
-4.054846	翔	-0.30578986
-3.921872	佛	-0.33663657
-3.988394	滴	-0.50800824
-3.7866788	地铁	-0.19126025
-4.194845	截至	-0.41810006
-3.8962119	调控	-0.3246354
-3.7997828	指导	-0.3808313
-4.054846	男孩	-0.1521241
-3.7739587	公众	-0.25901762
-4.0923195	二零一五	-0.31708547
-4.0094347	幅度	-0.27194166
-3.7099671	如此	-0.21385814
-3.6786678	拖	-0.47033212
-3.8064861	毫	-0.72168744
-3.998787	射	-0.21529347
-3.7495842	阻	-0.40603083
-3.6786678	肯定	-0.43046057
-3.7997828	累计	-0.18915513
-3.7045915	类似	-0.30184343
-3.8565512	形式	-0.3049687
-3.7045915	推广	-0.2531156
-3.8064861	微信	-0.26543528
-3.8202112	一亿元	-0.7612901
-3.978244	年底	-0.27633977
-3.6992815	在北京	-0.17567413
-3.82724	众多	-0.14258178
-3.8132944	三千	-0.37195724
-4.0923195	龄	-0.40513992
-3.644793	构	-0.5860933
-3.7495842	一天	-0.1842938
-4.194845	烈	-0.48239785
-4.0094347	症	-0.46070504
-3.8879848	姓	-0.2340381
-3.6687167	欲	-0.17051655
-3.913149	鱼	-0.24266985
-3.8343844	船	-0.2798517
-4.0430403	二零一一年	-0.2456759
-3.864199	优惠	-0.47154033
-3.8962119	重庆	-0.28531045
-3.7154102	免费	-0.2072731
-3.82724	年龄	-0.29307446
-3.7616005	难度	-0.30555972
-3.7321613	第一次	-0.15804847
-3.8343844	股市	-0.19814718
-3.864199	小米	-0.2431027
-3.9045978	跑者	-0.21550463
-3.921872	十一月	-0.3028579
-3.8879848	地位	-0.62169385
-3.8879848	讨	-0.23650281
-3.8565512	淡	-0.52149576
-3.958629	三四线城市	-0.29725292
-3.7154102	律师	-0.19073285
-3.7997828	程序	-0.29985228
-3.7931814	奥运	-0.38762408
-3.849036	配套	-0.2503523
-3.7616005	领先	-0.4009833
-3.7677355	告诉记者	-1.0380912
-3.8343844	位于	-0.102902934
-3.7265055	续	-0.35414237
-3.7265055	各类	-0.15647627
-3.7436986	至今	-0.31271273
-3.7209225	负责	-0.100325726
-3.7739587	功	-0.42245114
-3.8879848	说明	-0.27100658
-3.6992815	十二五	-0.5234
-3.7739587	惠	-0.38223553
-3.8719835	祖	-0.40002555
-3.921872	迟	-0.4141126
-3.7677355	怀孕	-0.29751623
-3.82724	支撑	-0.33876163
-3.8202112	延续	-0.31331646
-3.7555509	困难	-0.51377136
-3.7677355	电梯	-0.19444628
-4.7519355	这也是	-0.11235305
-3.9683259	该项目	-0.25085115
-3.644793	更为	-0.12658115
-3.998787	中国田径	-0.41826746
-3.958629	信心	-0.41024262
-4.229209	时候	-0.1397433
-3.6047947	吸	-0.6305542
-3.7931814	卷	-0.32868576
-3.6494734	陪	-0.4282574
-3.9045978	唐	-0.35104057
-3.8962119	烧	-0.27576616
-3.6786678	恢复	-0.23254481
-3.8416483	采购	-0.28662026
-4.0430403	八日	-0.425452
-4.163002	主席	-0.21951544
-3.7321613	纯	-0.39801043
-3.7154102	遇到	-0.2821434
-4.0669813	闻	-0.25630102
-3.552836	担	-0.758798
-3.949144	诊	-0.39562348
-3.7045915	逆	-0.7065981
-3.7099671	亦	-0.15918219
-3.8799105	矿	-0.34004134
-3.9045978	繁	-0.4007609
-4.0430403	顿	-0.27898055
-3.7321613	乱	-0.30810153
-3.9398618	司	-0.43403208
-3.5881352	之外	-0.9395727
-4.194845	术	-0.2792815
-3.8132944	采	-0.4275211
-3.8565512	划	-0.3241276
-3.7436986	练	-0.3358625
-4.6466393	每日经济新闻	-0.92744493
-3.849036	迫	-0.39281556
-3.7209225	扎	-0.38842064
-4.1055655	卓	-0.324455
-4.211687	去年同期	-0.35963932
-3.9045978	央行	-0.19212285
-3.7677355	农民	-0.3102671
-3.82724	地方政府	-0.17515238
-3.7739587	认定	-0.21319446
-3.8064861	手段	-0.3965159
-3.5566194	背	-0.6699325
-3.7436986	力量	-0.26868656
-3.8962119	有可能	-0.17180693
-4.0430403	上海市	-0.1717901
-3.9307737	赔	-0.2648379
-3.998787	屏	-0.18056537
-3.8064861	冬	-0.54387546
-3.9398618	庄	-0.1990893
-3.8799105	恒	-0.4921564
-3.7265055	独立	-0.31557965
-3.9683259	下半年	-0.17447188
-3.8719835	不要	-0.16422966
-3.8064861	已有	-0.17158219
-3.7436986	不再	-0.19718535
-3.8343844	历	-0.41913542
-3.7209225	运行	-0.25585997
-3.8879848	灾	-0.35519922
-3.7616005	煤	-0.582539
-4.0094347	递	-0.28849348
-3.8343844	钢	-0.37549835
-3.8202112	内幕交易	-0.34573233
-3.958629	莱	-0.38308117
-3.780272	赴	-0.26316288
-3.7866788	消防	-0.29231712
-3.6888523	设立	-0.21039686
-3.8719835	营收	-0.26677105
-3.7099671	突	-0.5103357
-3.864199	知名	-0.35966098
-3.8132944	带动	-0.24292035
-3.8416483	丹	-0.26090753
-3.7378914	吧	-0.6032375
-3.7436986	撤	-0.59234774
-4.1479154	剂	-0.26538572
-3.82724	梅	-0.21589404
-3.9307737	有限公司	-0.28397217
-3.7866788	危险	-0.62948513
-3.780272	解释	-0.32122204
-3.7378914	展示	-0.27730718
-3.958629	天津	-0.23664536
-3.7555509	人数	-0.20150518
-3.978244	引导	-0.26731956
-4.0430403	链家	-0.3015938
-3.7495842	纳入	-0.16657086
-3.978244	一张	-0.11581575
-4.6022367	这也	-0.24570462
-3.8879848	越来越多	-0.7854625
-3.8879848	以下	-0.38015023
-4.0923195	润	-0.344833
-4.031547	瓦	-0.48982298
-3.5453665	娱乐	-0.44782382
-3.82724	杭州	-0.12306093
-3.988394	三星电子	-0.18934365
-3.8064861	举报	-0.23038365
-3.7931814	社区	-0.21955487
-3.7265055	非法	-0.23243608
-3.8343844	学院	-0.2315625
-3.5132585	劳	-0.76123273
-3.7866788	下调	-0.39971274
-3.7997828	吉	-0.27340412
-3.8132944	党	-0.41331366
-4.031547	尾	-0.2535681
-3.9045978	洛	-0.42425302
-4.4596124	署	-0.32384512
-3.9045978	轨	-0.50040513
-4.329307	誉	-0.33810127
-3.8064861	违规	-0.32977873
-3.7997828	盈利	-0.345909
-3.978244	年内	-0.17767794
-3.8202112	账户	-0.28073555
-3.7866788	落后	-0.3732235
-4.3524265	本报记者	-0.30502182
-4.163002	百分之八十	-0.50829643
-3.7045915	退出	-0.25145325
-3.6221187	为主	-0.649214
-4.079466	中国选手	-0.17766301
-4.1055655	育	-0.22429384
-4.0923195	缘	-0.25879115
-4.2864623	晨报记者	-0.36434323
-3.864199	浙江	-0.20382246
-3.780272	多少	-0.23167746
-3.7099671	学习	-0.25346628
-3.7677355	简单	-0.3709191
-3.7154102	联系	-0.35085288
-3.978244	去库存	-0.5075761
-3.8343844	期待	-0.41441578
-3.8343844	发布了	-0.24604857
-3.8343844	高管	-0.22278976
-3.8879848	联想	-0.30004296
-3.8416483	体现	-0.4815402
-3.978244	京东	-0.31701416
-3.6888523	则是	-0.07988059
-3.7555509	宣	-0.48951346
-3.988394	敢	-0.15800065
-3.8064861	莫	-0.48612916
-3.8064861	震	-0.63310033
-3.82724	亏损	-0.29751405
-3.8799105	争夺	-0.32759872
-3.9398618	现实	-0.37597266
-3.6837304	商品	-0.46229702
-3.6888523	提前	-0.14772551
-3.6589885	高速	-0.41487628
-3.8343844	或许	-0.27236384
-3.8132944	配合	-0.19982465
-3.6736639	办理	-0.1926404
-3.780272	现代	-0.46311957
-3.7931814	将于	-0.39351475
-3.958629	产权	-0.3460141
-3.7931814	在今年	-0.21997555
-3.8202112	健身	-0.25427237
-4.1055655	来源	-0.36518973
-4.079466	吨	-0.34434438
-4.0094347	箱	-0.22168335
-3.8565512	旁	-0.3855416
-4.3524265	上交所	-0.19675244
-3.988394	修订	-0.32682025
-3.958629	角色	-0.43061262
-3.7321613	给予	-0.12299519
-3.5800393	扩	-0.83263123
-3.6888523	作出	-0.23935811
-3.8719835	新兴	-0.52750957
-3.958629	第五	-0.4463396
-3.7265055	对此	-0.14513955
-3.978244	池	-0.21891946
-4.02035	劫	-0.3938247
-3.7436986	欠	-0.30776668
-4.02035	怕	-0.1679627
-3.7997828	闹	-0.28064477
-3.913149	设施	-0.34767407
-4.8160186	京华时报讯	-1.22641
-3.913149	高于	-0.09947855
-4.163002	抓获	-0.5535817
-3.7378914	加入	-0.21047713
-3.9307737	晚上	-0.2281396
-3.7616005	并购	-0.25801155
-3.8416483	公园	-0.19947077
-3.9398618	重视	-0.29686698
-3.7321613	迎	-0.3932833
-4.307357	十一日	-0.37949824
-4.0430403	同期	-0.30774128
-3.9683259	川	-0.20150469
-4.2864623	岸	-0.32421845
-3.849036	纸	-0.25097406
-3.8202112	监督	-0.38562647
-4.02035	题	-0.4426443
-3.958629	一系列	-0.17250757
-3.913149	指数	-0.39751002
-3.82724	税收	-0.26851416
-3.7997828	率先	-0.26294968
-3.8202112	中小企业	-0.19538113
-3.7997828	一度	-0.15839356
-3.7321613	触	-0.39784217
-4.1192284	妈	-0.14514287
-3.6687167	搜	-0.87518144
-4.054846	谷	-0.23684937
-3.780272	窗	-0.43161035
-3.849036	赌	-0.4509822
-4.1479154	晶	-0.28185686
-3.9398618	岗	-0.38211742
-4.1479154	洁	-0.33453542
-3.9683259	垄断	-0.32649842
-3.6940355	依旧	-0.1932581
-3.7866788	晋级	-0.46312302
-3.921872	探索	-0.1988751
-4.133335	银牌	-0.68276143
-3.8799105	文件	-0.26925388
-3.8202112	评价	-0.2793648
-3.949144	公交车	-0.23542887
-4.0094347	新政	-0.22056642
-3.8719835	打击	-0.28031033
-3.8343844	定位	-0.30478886
-3.7378914	令人	-0.17242779
-4.1479154	斤	-0.3086175
-3.8132944	液	-0.5024904
-3.8962119	劲	-0.3877166
-3.978244	周杰伦	-0.19033381
-4.491121	国家统计局	-0.62289226
-3.958629	泽	-0.32675058
-3.8799105	洪	-0.22179791
-3.8132944	生命	-0.39144117
-3.8879848	信贷	-0.29767874
-3.82724	分享	-0.20485984
-3.7495842	担心	-0.20541169
-3.780272	家长	-0.11771383
-3.7931814	曾经	-0.14328332
-4.0430403	另	-0.50436777
-3.8202112	飞行	-0.33094615
-3.864199	一条	-0.09550287
-3.8416483	产能	-0.24836387
-3.7099671	展开	-0.30365413
-4.079466	决赛中	-0.44033268
-3.7739587	摔	-0.5027028
-3.988394	昌	-0.18792707
-3.7321613	兼	-0.43217197
-4.02035	英特尔	-0.14389645
-3.9307737	菲	-0.38217264
-3.864199	门槛	-0.324866
-3.849036	释放	-0.45002204
-3.7045915	拍摄	-0.2091645
-3.8565512	飞机	-0.18202081
-3.949144	青年	-0.28645733
-3.8719835	机场	-0.20567922
-3.849036	背后	-0.36916965
-3.7616005	强调	-0.19023475
-4.133335	这里	-0.20934199
-3.998787	一二线城市	-0.31412303
-3.949144	此事	-0.3212978
-3.7866788	熟	-0.554452
-3.9398618	响	-0.37062943
-3.8799105	趋	-0.42636424
-3.8132944	沿	-0.45027113
-3.849036	牙	-0.36038518
-3.82724	喜欢	-0.1653663
-3.9045978	欧洲	-0.18751153
-3.8416483	刚刚	-0.17529966
-3.921872	方法	-0.4132705
-3.7866788	主动	-0.19958234
-3.8565512	改造	-0.27513894
-3.8202112	老板	-0.10717461
-3.949144	股价	-0.17178848
-3.998787	分化	-0.32441968
-3.8064861	多名	-0.1316958
-3.978244	事发	-0.4232604
-3.6090612	睡	-0.54176325
-3.82724	墙	-0.3626524
-3.988394	振	-0.43078065
-3.8416483	饮	-0.52024424
-3.9398618	仓	-0.36381623
-4.430236	寸	-0.28635326
-3.8416483	讨论	-0.36816353
-3.7099671	设置	-0.15333301
-4.163002	男童	-0.2065223
-3.921872	分析师	-0.3717533
-3.8416483	产业链	-0.37253258
-4.02035	大多数	-0.15791316
-3.82724	下来	-0.4532478
-3.7931814	组合	-0.2478975
-3.9398618	为什么	-0.19585466
-3.7154102	对外	-0.31045687
-3.7739587	享受	-0.15092288
-3.8343844	朝	-0.35431036
-4.0923195	跃	-0.45851296
-3.978244	秘	-0.2869562
-4.02035	究	-0.46147215
-3.8799105	慈	-0.56349385
-4.02035	苏炳添	-0.25196192
-3.978244	鉴	-0.56224656
-4.1055655	鸟巢	-0.15896687
-4.0094347	避免	-0.14351226
-3.9045978	共有	-0.28356475
-3.958629	回落	-0.50074714
-3.949144	一项	-0.12241938
-4.0094347	房地产行业	-0.23873237
-3.7378914	实行	-0.15379576
-3.8064861	供应商	-0.20820527
-3.7154102	本身	-0.26277095
-4.491121	律	-0.31003872
-3.913149	国外	-0.18590076
-3.8565512	接力	-0.36248866
-4.054846	朝阳	-0.6546733
-3.921872	总裁	-0.30630437
-4.307357	绩	-0.49231982
-3.9683259	唯一	-0.23139903
-3.8416483	父母	-0.10712423
-4.0669813	小学	-0.1873077
-3.7997828	起诉	-0.25398815
-3.7997828	半年	-0.37179112
-3.9683259	主题	-0.37358332
-4.1479154	习	-0.58289576
-3.8799105	层面	-0.28742188
-3.8064861	嫌	-0.6278275
-4.031547	绑	-0.30447286
-3.7495842	搞	-0.19909395
-3.864199	霸	-0.42871708
-3.9045978	伊	-0.27007914
-3.7997828	坠	-0.67618155
-4.178632	新建商品住宅	-0.5862891
-4.031547	九零后	-0.24398468
-3.82724	尝试	-0.24337952
-3.7997828	复盖	-0.32348904
-3.780272	顺利	-0.28794947
-3.7997828	整合	-0.22723876
-3.7997828	老师	-0.12421136
-3.8416483	短期	-0.279925
-4.0094347	半决赛	-0.43426764
-3.8343844	最后一	-0.33122596
-3.8064861	一批	-0.09683352
-4.307357	亡	-0.27046582
-3.6992815	扶	-0.71837044
-3.6221187	休	-0.6211684
-3.82724	电商	-0.23109202
-4.491121	径	-0.34147397
-4.02035	渐	-0.28816774
-3.7997828	坦	-0.37170097
-3.8962119	忙	-0.21432304
-3.9307737	井	-0.23463006
-3.780272	塞	-0.44647077
-3.9307737	蛋	-0.41942486
-4.7519355	下降的城市有	-0.94118756
-3.8202112	派出所	-0.25186232
-3.949144	智慧	-0.6170891
-3.8343844	丰富	-0.47498995
-3.913149	终端	-0.22955093
-4.079466	些	-0.1673593
-3.8416483	研	-0.40738872
-3.849036	公益	-0.31744298
-3.8879848	大众	-0.31144798
-4.02035	候	-0.4156279
-3.8064861	值得	-0.30239066
-3.7495842	拿下	-0.21952638
-3.7739587	香	-0.20578472
-4.031547	伯	-0.37340114
-3.7997828	逼	-0.2523593
-4.054846	节奏	-0.35293376
-4.0430403	哪些	-0.14424147
-3.9683259	总量	-0.31200144
-3.9045978	形势	-0.35373387
-3.8799105	教师	-0.15680149
-3.8719835	小伙	-0.3067018
-4.178632	百元	-0.3664582
-3.8202112	行动	-0.3024232
-3.988394	首先	-0.2725024
-3.949144	销售额	-0.18464817
-3.978244	英国	-0.19675367
-3.8565512	突出	-0.39446148
-3.978244	平稳	-0.4749261
-3.4494123	依	-0.92585623
-3.913149	董	-0.26490295
-3.7378914	罚	-0.544157
-4.133335	似	-0.16455147
-3.7931814	并不是	-0.12787591
-3.921872	燕	-0.38884497
-4.0669813	癌	-0.33218214
-3.8962119	差距	-0.3716559
-4.329307	即使	-0.1484595
-4.02035	刑事	-0.6225247
-4.133335	幅	-0.35126022
-3.921872	态度	-0.348183
-4.0669813	午	-0.36984363
-3.8202112	很好	-0.7185157
-3.864199	很快	-0.35106564
-3.7739587	一个月	-0.37723267
-4.8912215	然而	-0.12346361
-3.7099671	离开	-0.27121735
-3.9398618	百分之五	-0.7472294
-4.1192284	念	-0.2352929
-3.8416483	典	-0.50803757
-3.8962119	时期	-0.4002289
-4.054846	浦	-0.53014505
-3.849036	策略	-0.36022356
-4.402721	拘留	-0.6437871
-3.998787	它们	-0.18732624
-3.9398618	广东	-0.2000324
-3.8343844	证据	-0.41541788
-4.0669813	赛季	-0.24078111
-3.8962119	重组	-0.22820604
-3.958629	七百	-0.34790477
-3.8343844	铁路	-0.24790464
-3.7997828	未能	-0.121732526
-3.949144	袭	-0.343766
-3.9307737	漏	-0.4059063
-3.82724	纠纷	-0.2959034
-3.8565512	别墅	-0.3017132
-3.9398618	不动产登记	-0.43725902
-4.1479154	二十二日	-0.35442775
-4.02035	索尼	-0.16041757
-3.8416483	夺得	-0.2747319
-3.7265055	两次	-0.10810505
-3.8565512	群体	-0.36934924
-3.958629	最佳	-0.31057972
-3.864199	经常	-0.2105607
-3.9398618	良好	-0.5458318
-4.178632	二线城市	-0.43133664
-3.998787	这款	-0.30279735
-4.079466	本报	-0.21834722
-4.1479154	六日	-0.4314836
-3.9307737	成员	-0.26186284
-3.958629	房贷	-0.4501165
-3.978244	刺	-0.29730406
-3.864199	汪	-0.4309119
-4.133335	玲	-0.25243595
-4.079466	诗	-0.34690788
-3.9398618	堪	-0.5244279
-3.7739587	携	-0.64139295
-3.998787	腐	-0.32178804
-4.031547	贩	-0.36921695
-3.864199	阅	-0.58323157
-3.7997828	监控	-0.25879633
-4.031547	享	-0.24440031
-4.2474675	三季度	-0.28932238
-3.8799105	签约	-0.23498522
-4.0669813	另外	-0.23561978
-4.163002	总监	-0.38127342
-3.82724	男友	-0.13336445
-4.1479154	相信	-0.13724874
-3.8719835	开盘	-0.30918583
-3.949144	效率	-0.41713125
-3.8565512	成长	-0.31738952
-4.430236	月九日	-0.42834574
-4.1192284	革	-0.43803093
-3.8202112	倾	-0.62338966
-3.978244	唱	-0.34245354
-4.329307	贿	-0.34245354
-3.780272	横	-0.37040645
-3.8799105	铺	-0.22453953
-3.9398618	鸡	-0.2025788
-3.7866788	轻松	-0.25032657
-3.8879848	信息披露	-0.3054606
-4.0923195	原来	-0.20674975
-3.7931814	变得	-0.29102984
-3.864199	晒	-0.14624904
-3.8416483	将继续	-0.18664841
-4.491121	盟	-0.21528889
-3.913149	累	-0.3733913
-3.7154102	欢	-0.5907291
-4.1192284	十二月	-0.33916497
-3.9307737	堵	-0.23082128
-4.1055655	姆	-0.26726413
-4.0094347	栏	-0.20348069
-3.9398618	猛	-0.34248257
-3.988394	砍	-0.35170463
-3.849036	拨	-0.63490736
-3.988394	耳	-0.55964
-4.6466393	自由泳	-0.38607967
-4.0430403	碳	-0.3957963
-4.1055655	东芝	-0.21507005
-3.8879848	夫妻	-0.1910024
-3.978244	全年	-0.22899386
-3.7677355	到底	-0.34989387
-4.163002	二季度	-0.25965744
-3.9307737	根本	-0.4164523
-3.949144	治理	-0.22572811
-3.988394	反应	-0.351301
-3.8064861	报警	-0.5989753
-3.913149	黄金	-0.31087223
-4.3524265	晚报	-0.67641544
-4.133335	经理	-0.26210225
-3.7616005	出席	-0.21943842
-3.8064861	意外	-0.2827122
-3.8799105	小孩	-0.15679082
-3.7616005	买房	-0.3115536
-3.6355808	寻	-0.4159067
-3.6494734	透	-0.6690142
-4.133335	冬奥会	-0.22339866
-4.054846	聘	-0.224345
-4.1192284	霞	-0.16756235
-4.079466	琳	-0.15322934
-3.988394	绕	-0.14015451
-3.998787	可穿戴设备	-0.2808728
-3.8202112	陆续	-0.1581502
-4.194845	田径世锦赛	-0.29118204
-3.9307737	相关负责人	-0.40653926
-4.079466	亚军	-0.5942908
-3.7677355	感到	-0.16253595
-3.8799105	做到	-0.22764245
-4.163002	排放	-0.34886667
-4.194845	三十日	-0.31030932
-3.978244	优化	-0.25923386
-3.8879848	打破	-0.3375459
-3.7866788	交流	-0.3770013
-3.7739587	转移	-0.39188266
-3.9683259	粉	-0.24472453
-3.8799105	庞	-0.68304336
-3.921872	彻	-0.4840606
-3.8343844	挖	-0.39566416
-4.1055655	增幅	-0.2003553
-4.307357	吉林	-0.31906313
-3.978244	郑州	-0.22651747
-3.7931814	维持	-0.19978839
-3.864199	协调	-0.30175892
-4.02035	今后	-0.15408547
-3.9398618	角度	-0.3678733
-3.998787	百分之六十	-0.41175446
-3.8565512	明星	-0.1256709
-3.7866788	收获	-0.296777
-4.0923195	必要	-0.36030307
-3.978244	增强	-0.2546381
-3.913149	运作	-0.31308785
-4.031547	父	-0.192097
-3.7616005	测试	-0.21880762
-4.402721	特别是	-0.09876066
-3.998787	逐	-0.33877036
-3.8719835	定价	-0.2046918
-3.9045978	迹	-0.6417415
-4.0923195	宫	-0.20814037
-3.7866788	沉	-0.31765133
-3.9045978	挺	-0.2097083
-3.8879848	殴	-0.6505642
-4.211687	最好成绩	-0.4248676
-3.988394	智能家居	-0.2094032
-3.9045978	治疗	-0.38488716
-4.1192284	二十四日	-0.28610128
-3.913149	爆炸	-0.16567169
-3.8799105	救援	-0.3337226
-4.6466393	然后	-0.10976268
-3.958629	官员	-0.22187255
-3.8343844	转变	-0.4448109
-3.849036	物流	-0.22380134
-4.1192284	二百米	-0.35784882
-3.9045978	电动车	-0.23496668
-3.8064861	还没有	-0.086369604
-4.0669813	虹	-0.240966
-4.3768463	币	-0.35110575
-3.9045978	妹	-0.3076162
-4.194845	婷	-0.17486963
-4.054846	尸	-0.38300222
-4.054846	娃	-0.13903525
-4.0094347	涵	-0.31743002
-4.402721	无论是	-0.084139675
-3.913149	多元化	-0.29357037
-3.82724	担任	-0.10693472
-3.7739587	充满	-0.25439358
-4.0430403	理念	-0.4181407
-3.913149	装修	-0.12411276
-3.849036	效应	-0.3443906
-3.7931814	留下	-0.2694794
-3.913149	控股	-0.26479244
-3.9045978	五万元	-0.47119814
-4.02035	预赛	-0.3585333
-3.82724	通报	-0.40146834
-3.988394	不错	-1.072079
-3.6401625	掌	-0.5073092
-3.9045978	偶	-0.5833164
-3.9307737	卧	-0.7403531
-3.7616005	牵	-0.49782535
-3.921872	腾	-0.26768264
-4.2665277	扰	-0.3037934
-4.0923195	有利于	-0.08732356
-4.163002	铜牌	-0.8246773
-3.9307737	林丹	-0.15142924
-3.8132944	寻找	-0.09593555
-4.02035	彩电	-0.331442
-3.9307737	作品	-0.25498715
-4.0669813	格力	-0.22161235
-3.8202112	爆发	-0.33274913
-3.913149	德国	-0.20502496
-3.988394	大陆	-0.11675007
-3.8202112	系列	-0.18164985
-3.849036	司法	-0.3864618
-4.02035	搜狐	-0.5490851
-3.998787	嫌疑人	-0.16299222
-4.079466	壁	-0.3663785
-4.02035	博尔特	-0.19296867
-3.998787	宾	-0.28402504
-3.988394	虎	-0.19830877
-4.0094347	词	-0.3401103
-3.7739587	迈	-0.49869066
-3.958629	增值税	-0.32922152
-3.8879848	委员会	-0.22924797
-3.9045978	是为了	-0.09772168
-3.958629	近年来	-0.122499175
-3.8962119	特殊	-0.22516364
-4.031547	配置	-0.26475102
-4.133335	女童	-0.22179152
-3.8416483	审核	-0.23472734
-3.8799105	足球	-0.19894382
-3.9683259	四川	-0.17213503
-3.998787	统	-0.43913177
-4.307357	十五岁	-0.31196746
-3.921872	状	-0.4406918
-3.978244	佩	-0.505393
-3.8962119	喊	-0.22884677
-4.430236	奸	-0.24249156
-3.8132944	抽	-0.385549
-4.3524265	炼	-0.25585112
-4.1479154	祥	-0.1928469
-4.1192284	二零一六年	-0.19698483
-3.8962119	吐	-0.46149746
-3.9307737	忍	-0.44417927
-4.079466	捷	-0.26398396
-4.982232	本报讯记者	-0.32823914
-3.988394	植	-0.33086267
-3.8879848	泄	-0.7156963
-3.82724	抛	-0.49383813
-5.035466	最高涨幅为	-0.84239423
-4.054846	允许	-0.12596369
-3.9683259	广泛	-0.43134812
-4.1055655	夏普	-0.1834076
-4.02035	识别	-0.2918175
-3.9683259	犯罪	-0.3382987
-3.8799105	修改	-0.26287207
-3.8565512	村民	-0.088653766
-3.8962119	跑友	-0.19892249
-3.8132944	占据	-0.22066443
-3.8719835	理解	-0.3158825
-3.949144	体制	-0.44025052
-3.998787	百分之二	-0.5690651
-3.8719835	技	-0.36094615
-4.0669813	弃	-0.22004929
-3.864199	软	-0.30426654
-3.978244	房源	-0.199229
-3.958629	希	-0.19401042
-3.8879848	右	-0.27853698
-3.8132944	疯	-0.59386754
-3.958629	辛	-0.4678808
-3.8565512	习惯	-0.27778742
-4.1192284	犯罪嫌疑人	-0.1680967
-3.864199	纪念	-0.2960631
-3.958629	屏幕	-0.21340461
-3.864199	幸福	-0.30470014
-3.8416483	意识	-0.4857941
-3.998787	特点	-0.64114517
-3.913149	往往	-0.17234935
-3.913149	审批	-0.2523828
-3.8879848	证实	-0.32119343
-4.1192284	童	-0.20708948
-3.9045978	空调	-0.19657278
-3.8064861	落地	-0.39829707
-3.9398618	小组	-0.34737536
-4.3768463	域	-0.1738614
-3.9307737	焦	-0.55598915
-3.7739587	截	-0.6529846
-3.7931814	变成	-0.19272712
-4.02035	婆	-0.23659791
-4.1055655	肥	-0.28107068
-4.02035	污	-0.46887004
-3.9045978	鬼	-0.33923638
-4.133335	婴	-0.40692058
-3.988394	扫	-0.24486053
-4.0094347	毁	-0.28546044
-4.163002	涛	-0.12544271
-3.998787	灯	-0.2394098
-3.9045978	凯	-0.18104531
-4.1055655	里约奥运会	-0.42205197
-4.211687	二十七日	-0.36860442
-3.9683259	扮演	-0.36064443
-3.998787	搜狐体育	-0.9486002
-3.9683259	危机	-0.31021774
-4.329307	四季度	-0.17014506
-4.1055655	判决	-0.25824305
-3.7739587	能否	-0.08315349
-3.988394	乐观	-0.6181221
-3.949144	工具	-0.38067392
-3.913149	居住	-0.35308093
-3.949144	初步	-0.2094084
-3.978244	商业银行	-0.18904227
-3.864199	女友	-0.12076413
-3.998787	东西	-0.36352998
-3.9683259	各项	-0.20271778
-3.988394	持股	-0.30055076
-4.0094347	篮	-0.30993286
-4.163002	冻	-0.3721716
-3.7378914	残	-0.56621325
-3.978244	公租房	-0.202744
-3.9307737	出租车	-0.2589161
-3.8799105	索赔	-0.25851122
-3.8879848	退休	-0.32077932
-3.8879848	队伍	-0.2619924
-3.8343844	否认	-0.2369496
-4.3768463	比上月	-0.51825714
-3.913149	医药	-0.3129351
-3.5840685	摘	-0.8156401
-3.988394	窃	-0.42260683
-4.1055655	沪	-0.4125269
-3.9398618	帅	-0.3661022
-3.8962119	聊	-0.48872784
-3.864199	硬	-0.27179673
-4.0669813	尤	-0.8201413
-3.9307737	忽	-0.69698435
-4.211687	裂	-0.3172329
-4.1055655	拔	-0.23923486
-3.864199	圆	-0.2857291
-4.2474675	舍	-0.35406703
-4.525096	否	-0.5994103
-4.054846	宿	-0.3469238
-4.178632	朗	-0.25235245
-3.8565512	麻	-0.35035792
-4.402721	映	-0.36610436
-4.211687	握	-0.2902009
-4.031547	怪	-0.2553595
-3.9398618	攀	-0.64462435
-3.9683259	欣	-0.21915512
-3.8962119	碰	-0.4925518
-3.988394	踏	-0.33827564
-4.2864623	押	-0.20229533
-4.307357	驰	-0.28284365
-3.913149	塔	-0.16688968
-4.178632	梯	-0.20548809
-3.9683259	宅	-0.35769644
-4.0094347	弹	-0.37879694
-3.8343844	诺	-0.34882396
-4.031547	乳	-0.40273562
-3.8879848	艰	-0.80434704
-3.921872	废	-0.4083895
-4.079466	妻	-0.105453014
-3.7931814	灵	-0.5392408
-4.3768463	概	-0.2867376
-4.02035	侦	-0.59128875
-4.2474675	句	-0.34625465
-4.6466393	荐	-0.28718922
-4.194845	悉	-0.26536992
-3.6221187	拒	-0.45913327
-3.7931814	搬	-0.5018186
-3.949144	杜	-0.26411343
-3.9683259	瓶	-0.3741588
-3.998787	肖	-0.3102157
-4.1192284	忘	-0.43331486
-3.8416483	丢	-0.23482697
-4.133335	厦	-0.4114926
-4.054846	曼	-0.16890149
-4.1192284	贝	-0.26706675
-4.163002	纵	-0.38179377
-3.988394	附	-0.4784398
-4.329307	拘	-0.49903098
-4.8160186	敦	-0.34183884
-3.8879848	劝	-0.35579848
-3.864199	惨	-0.49192423
-3.9045978	泡	-0.5110844
-4.1192284	洞	-0.24860378
-4.031547	鹏	-0.16641416
-3.9398618	默	-0.4012811
-4.2474675	识	-0.4128196
-3.7321613	始	-0.5772208
-3.8565512	奶	-0.43309128
-4.031547	酷	-0.35657805
-4.1479154	颖	-0.2798709
-4.1055655	塌	-0.4221785
-3.8799105	巡	-0.5278466
-4.0669813	羊	-0.33114752
-4.2665277	脏	-0.24259606
-4.079466	麦	-0.22724283
-3.9683259	廉	-0.5169235
-3.9307737	挤	-0.3346782
-3.9045978	添	-0.34915137
-4.0923195	仿	-0.3403051
-3.949144	颜	-0.5270919
-3.8962119	拥	-0.6135893
-3.82724	锦	-0.76644146
-4.079466	君	-0.3115828
-4.2864623	俩	-0.12236894
-4.0669813	乌	-0.32850975
-3.949144	邮	-0.4742248
-4.2474675	敌	-0.18507168
-4.02035	昨	-0.4925491
-4.0430403	召	-0.4559033
-3.949144	魔	-0.2858126
-3.978244	宋	-0.27386454
-4.02035	漫	-0.37556455
-3.958629	舒	-0.55276203
-3.998787	钟	-0.17678156
-3.958629	挥	-0.28939697
-4.1192284	杯	-0.2107832
-4.194845	铜	-0.38724074
-3.998787	隆	-0.17971137
-4.307357	傅	-0.22656378
-4.02035	姿	-0.4351769
-4.031547	萌	-0.20621641
-3.998787	谨	-0.76225674
-4.1192284	茶	-0.24854033
-4.1479154	策	-0.36202523
-3.921872	虽	-0.13660735
-4.2864623	驶	-0.2703506
-3.9307737	谋	-0.29311055
-4.3524265	郁	-0.6625548
-3.9683259	驱	-0.5224711
-4.054846	敬	-0.36900103
-4.0430403	著	-0.70440793
-3.988394	屋	-0.21398269
-4.1055655	坛	-0.3759824
-4.1192284	娜	-0.10524187
-3.9398618	闪	-0.34318256
-4.133335	循	-0.4987
-3.9045978	悬	-0.5156824
-4.2474675	鸿	-0.17007606
-4.02035	摊	-0.2818014
-3.8799105	伪	-0.5969891
-3.9398618	吕	-0.68467945
-3.9398618	摇	-0.33159077
-3.9398618	暗	-0.3097173
-3.949144	稀	-0.49026948
-4.02035	吊	-0.3035013
-3.988394	咬	-0.30457503
-3.9307737	涌	-0.46796244
-4.491121	炉	-0.3354762
-4.02035	熊	-0.25736356
-4.133335	稿	-0.26528105
-3.978244	卢	-0.2464387
-4.079466	泉	-0.22198997
-4.307357	蕾	-0.11086515
-3.864199	闯	-0.46424937
-4.211687	伙	-0.52158904
-3.8879848	挑	-0.2327351
-3.958629	杂	-0.50163794
-4.2474675	训	-0.20810352
-4.178632	坡	-0.17125969
-4.0430403	桌	-0.41501385
-4.3524265	逸	-0.28673664
-4.194845	氧	-0.6451195
-4.2665277	赠	-0.28624532
-4.1479154	俊	-0.21412782
-3.9398618	哭	-0.2340479
-3.958629	啦	-0.84057736
-4.054846	冯	-0.3671214
-4.133335	凡	-0.29216576
-3.9683259	吓	-0.30837813
-4.1192284	巧	-0.30361432
-4.1479154	恰	-0.44450796
-4.1055655	赫	-0.1748529
-4.0430403	汽	-0.2579473
-3.8064861	沟	-0.5397809
-4.02035	济	-0.49666107
-4.133335	援	-0.27265835
-4.3768463	束	-0.3026041
-4.031547	祝	-0.39926568
-4.163002	迁	-0.24683872
-4.0430403	凶	-0.3079502
-4.307357	琪	-0.24229854
-4.1192284	抚	-0.4933228
-4.031547	贯	-0.53052026
-4.079466	锋	-0.12348438
-4.491121	际	-0.43462595
-4.1055655	斌	-0.097676456
-3.998787	腹	-0.36176255
-4.178632	伸	-0.3129984
-4.1055655	圣	-0.30587822
-4.0094347	肩	-0.48113057
-4.329307	郊	-0.19425927
-4.2864623	厉	-0.65846866
-4.7519355	糕	-0.4496242
-4.194845	灭	-0.28767928
-3.998787	胖	-0.17563474
-4.194845	鑫	-0.1566368
-3.7436986	诚	-0.5242826
-3.949144	贸	-0.6232337
-4.194845	慧	-0.15359823
-3.7321613	昆	-0.75680816
-4.2864623	妙	-0.4244508
-3.949144	诞	-0.7587615
-4.194845	闲	-0.22657849
-4.163002	尖	-0.2928205
-4.0923195	邱	-0.40244624
-4.561956	酬	-0.1885737
-4.02035	尊	-0.43624797
-3.988394	屡	-0.31547332
-3.988394	浮	-0.20803055
-4.2864623	饰	-0.21790871
-3.998787	摸	-0.26017624
-4.561956	踪	-0.21986382
-4.6466393	诈	-0.31452712
-3.978244	孕	-0.4020795
-4.054846	兑	-0.560619
-4.079466	勒	-0.26163232
-4.402721	熙	-0.33274245
-3.998787	遥	-0.50731695
-3.913149	敲	-0.6771624
-4.0669813	甲	-0.19789597
-4.194845	猫	-0.10356355
-4.079466	蔡	-0.3009692
-4.0094347	怒	-0.27786303
-3.949144	浓	-0.46366888
-3.8962119	颇	-0.56100917
-4.211687	驻	-0.20225988
-4.2474675	惜	-0.23259006
-4.211687	衡	-0.37877992
-4.1192284	督	-0.711143
-4.0923195	献	-0.3646769
-4.0094347	磨	-0.24501307
-4.0669813	仁	-0.2824056
-4.1192284	割	-0.31557468
-4.229209	宴	-0.35797355
-4.329307	赏	-0.21381791
-4.1055655	轴	-0.21665254
-4.0430403	骂	-0.19542713
-4.229209	姜	-0.16206491
-4.6022367	歉	-0.44551012
-4.229209	猪	-0.15216684
-4.178632	暖	-0.32933235
-3.6355808	赢	-0.6740968
-3.849036	拓	-0.6493921
-4.491121	渡	-0.28718928
-4.054846	甜	-0.4266903
-4.329307	番	-0.1862469
-4.525096	践	-0.32683927
-4.133335	浩	-0.2305523
-4.0430403	醒	-0.21077642
-4.054846	薄	-0.2136827
-4.2474675	畅	-0.43875384
-3.9307737	蒙	-0.48767406
-4.1055655	尺	-0.841189
-4.133335	泥	-0.1637729
-3.988394	溺	-0.9249248
-4.525096	忆	-0.20600039
-4.0669813	盐	-0.14638335
-4.1479154	么	-0.21041593
-4.133335	亏	-0.23715448
-4.079466	抑	-0.687011
-4.211687	蒋	-0.37368336
-4.229209	帝	-0.22333528
-4.0430403	碎	-0.3624403
-3.998787	稍	-0.33092377
-3.988394	掀	-0.57968456
-4.1479154	颗	-0.20650412
-4.696104	虑	-0.42756987
-4.329307	娘	-0.18996923
-4.02035	粮	-0.35098377
-3.9683259	拐	-0.26906237
-4.163002	仔	-0.2309051
-4.329307	刊	-0.2736155
-3.988394	尿	-0.31596366
-4.307357	幻	-0.25281015
-3.9398618	扭	-0.54788136
-4.0430403	艾	-0.36069882
-3.7739587	幼	-0.76246935
-4.194845	牢	-0.35164025
-3.780272	辞	-0.58351177
-4.0094347	忧	-0.47045904
-4.0923195	丝	-0.26050055
-4.178632	贾	-0.31750378
-4.211687	辽	-0.6606703
-4.0923195	诱	-0.35896012
-3.998787	履	-0.67821515
-4.133335	旋	-0.41359484
-4.4596124	潭	-0.21317224
-4.2474675	篇	-0.23028225
-4.402721	臂	-0.12365153
-4.0430403	苗	-0.2576786
-4.2864623	衔	-0.51727754
-4.0430403	邻	-0.54150677
-4.2864623	饼	-0.2515147
-4.2474675	黎	-0.19275194
-4.1055655	桂	-0.3340474
-4.1479154	潘	-0.31057838
-4.0430403	甘	-0.40280882
-4.163002	堆	-0.13560313
-4.329307	氏	-0.3125689
-3.978244	逾	-0.2884311
-4.402721	邦	-0.34223038
-3.998787	拦	-0.44670027
-4.229209	旭	-0.2792729
-4.079466	豆	-0.32649428
-4.2665277	津	-0.58711934
-4.031547	甚	-0.29203236
-4.2474675	盈	-0.5531344
-4.031547	撑	-0.27465203
-4.491121	碍	-0.4207539
-4.178632	姚	-0.25211287
-4.079466	硕	-0.30881995
-4.178632	萨	-0.30749694
-4.1192284	裤	-0.27710858
-4.133335	弗	-0.47899854
-4.133335	棋	-0.16127324
-4.0430403	辅	-0.60589284
-4.1055655	邓	-0.26619706
-4.1055655	陶	-0.30357096
-3.8799105	危	-0.5316771
-4.2474675	伏	-0.30332443
-4.561956	祸	-0.21798758
-4.133335	夹	-0.16727118
-4.6466393	槽	-0.16149493
-4.3524265	帖	-0.23857301
-4.0923195	袁	-0.18151733
-4.0923195	勾	-0.6033323
-3.7555509	央	-1.0395298
-4.6466393	辑	-0.33817273
-4.194845	倡	-0.38340724
-4.1192284	垫	-0.32224056
-3.913149	乔	-0.38737485
-3.9398618	啊	-0.9887307
-4.211687	栋	-0.3208359
-4.054846	漂	-0.557454
-3.978244	疏	-0.45263112
-4.402721	碑	-0.20784302
-4.3524265	裕	-0.32297722
-3.998787	裸	-0.24686895
-4.307357	颈	-0.3850419
-4.229209	魅	-1.0121418
-4.0669813	嘴	-0.13946433
-4.0669813	弯	-0.29764283
-4.054846	暑	-0.5467091
-3.988394	腰	-0.20892547
-4.0430403	雇	-0.44044465
-4.0430403	壮	-0.33583584
-4.0923195	汤	-0.32015744
-4.211687	魏	-0.33583584
-4.229209	键	-0.309238
-4.054846	须	-0.07996373
-4.307357	悦	-0.19812356
-4.2864623	葛	-0.39942795
-4.2474675	兆	-0.4590112
-4.054846	屈	-0.39179218
-4.054846	忠	-0.13503407
-4.1479154	凤	-0.06583322
-4.1055655	挡	-0.2796588
-4.696104	疆	-0.13224173
-4.0669813	呈	-0.15764193
-4.163002	框	-0.77186257
-4.031547	颠	-0.7907775
-4.1479154	厕	-0.55088174
-4.1192284	帽	-0.45471382
-4.3524265	揽	-0.24673341
-4.0669813	猜	-0.48442686
-4.054846	疲	-0.41583666
-4.1192284	艳	-0.19524384
-4.307357	谣	-0.4176528
-4.2864623	貌	-0.24369387
-3.988394	般	-0.24452002
-4.133335	针	-0.36021832
-4.696104	谓	-0.27143738
-4.1192284	释	-0.44554353
-3.921872	障	-0.6125783
-3.8343844	沈	-0.49309546
-4.0669813	炸	-0.24386881
-4.2474675	贼	-0.12492601
-4.133335	胶	-0.20578052
-4.079466	贪	-0.40018752
-4.0923195	遵	-0.7910573
-4.163002	懂	-0.32205862
-4.163002	泪	-0.29393595
-4.178632	丑	-0.5011785
-4.194845	佣	-0.6390443
-3.978244	催	-0.32728902
-3.988394	削	-0.67442495
-4.054846	剑	-0.18628295
-4.0923195	吵	-0.28770193
-4.0669813	妥	-0.43063605
-4.2665277	寺	-0.18140993
-4.054846	擅	-0.57320607
-3.998787	欺	-0.59775597
-4.329307	烦	-0.46864557
-4.491121	狱	-0.21149501
-4.6466393	肃	-0.1945371
-4.229209	荷	-0.31318283
-4.329307	虾	-0.20519324
-4.031547	钻	-0.4644766
-4.1479154	萧	-0.38443786
-4.079466	灰	-0.28565475
-3.7616005	订	-0.47274268
-4.525096	劵	-0.29749498
-4.1192284	鞋	-0.2146383
-4.402721	侠	-0.23158346
-4.133335	厨	-0.60782975
-4.079466	徒	-0.7045268
-4.054846	溢	-0.7273952
-4.1192284	酸	-0.19604257
-4.7519355	奈	-0.20933507
-4.2665277	捧	-0.2791018
-4.133335	瓜	-0.27568743
-4.211687	紫	-0.55147314
-4.163002	逝	-0.573976
-4.1055655	湾	-0.07826096
-4.163002	染	-0.16024962
-4.1055655	塑	-0.4554809
-4.1192284	娇	-0.13994035
-4.133335	擦	-0.26417205
-4.3524265	柏	-0.46076298
-4.229209	柳	-0.32839528
-4.163002	滨	-0.21691479
-4.430236	磊	-0.07826096
-4.0923195	虐	-0.48487818
-4.1192284	轰	-0.3276345
-4.229209	辖	-0.528761
-4.163002	鼻	-0.29656196
-4.1479154	曹	-0.2821911
-4.079466	删	-0.4440456
-4.1192284	澄	-0.6758843
-4.3768463	乎	-0.14758262
-4.1055655	遍	-0.2690049
-4.2474675	拜	-0.2398742
-4.229209	疼	-0.44231665
-4.696104	峻	-0.43197572
-3.988394	珍	-0.22636224
-4.1192284	糖	-0.1828998
-4.178632	吹	-0.18748946
-4.561956	址	-0.22195321
-4.2864623	捞	-0.20165046
-4.1479154	柜	-0.26760706
-4.194845	笼	-0.26972777
-4.178632	肠	-0.27964422
-4.079466	捡	-0.21444306
-4.1479154	皇	-0.23401374
-4.1479154	帕	-0.28957462
-4.2665277	瑜	-0.13006143
-4.194845	乃	-0.7757716
-4.211687	勤	-0.07776386
-4.0923195	岳	-0.25845337
-4.229209	悲	-0.6268256
-4.6022367	昕	-0.12082434
-4.031547	羽	-0.39207956
-4.163002	肚	-0.38201338
-4.2474675	锅	-0.18303058
-4.329307	俗	-0.27484834
-3.988394	瘦	-0.21848997
-4.2864623	贤	-0.1290242
-4.133335	醉	-0.3507007
-4.194845	帆	-0.46905726
-4.079466	纠	-0.5473406
-4.4596124	菌	-0.37718835
-4.163002	墨	-0.887089
-4.1055655	爬	-0.21746139
-4.307357	汗	-0.2787379
-4.1055655	飙	-0.33197227
-4.031547	填	-0.2939391
-4.163002	彭	-0.25686687
-4.1055655	炮	-0.23947527
-4.1192284	耐	-0.3839159
-4.525096	蜜	-0.1796225
-4.491121	蝶	-0.6196479
-4.402721	轩	-0.17487396
-4.0094347	饱	-0.46309435
-4.3524265	鼠	-0.2576004
-4.163002	哲	-0.2733636
-3.9307737	愈	-0.50807464
-4.194845	蓄	-0.23810235
-4.1479154	滞	-0.61636055
-3.8343844	凭	-0.52835965
-4.229209	凌	-0.1438864
-4.2474675	孟	-0.20212688
-4.329307	湘	-0.20340909
-4.1192284	坑	-0.1357533
-4.3524265	琴	-0.11377104
-4.3768463	劣	-0.3908872
-4.6022367	掘	-0.22518994
-4.307357	咖	-0.43788362
-4.194845	宠	-0.5462375
-4.3768463	棍	-0.22718851
-4.402721	灿	-0.7174098
-4.3524265	乏	-0.15341154
-3.8719835	邀	-0.46151167
-4.163002	鼓	-0.2707956
-4.1192284	喷	-0.14566758
-4.525096	蔚	-0.14566758
-4.194845	孔	-0.16569209
-4.3524265	彦	-0.45305824
-4.329307	怡	-0.16749176
-4.0094347	抬	-0.3001584
-4.2474675	砖	-0.18350776
-4.178632	辩	-0.3952396
-4.3524265	辰	-0.17478673
-4.079466	凸	-0.5239387
-4.163002	孤	-0.3496605
-4.3768463	雯	-0.08261388
-4.491121	馨	-0.18099682
-4.696104	峡	-0.18350776
-4.178632	描	-0.43256938
-4.2474675	虫	-0.09369056
-3.978244	旺	-0.7344774
-4.3524265	柱	-0.10249714
-4.307357	昂	-0.4181233
-4.2474675	盆	-0.11822072
-4.1192284	滚	-0.2442627
-4.329307	肢	-0.28286526
-4.402721	阔	-0.35370582
-4.1055655	彼	-0.555727
-4.2864623	荒	-0.1830438
-4.2474675	崇	-0.48340338
-3.8343844	毕	-0.93522483
-4.561956	况	-0.33131382
-3.978244	乒	-0.6398237
-4.329307	壳	-0.24980177
-4.8912215	睛	-0.24833305
-4.4596124	斜	-0.3689361
-4.211687	沃	-0.3079204
-4.133335	瞬	-0.9660064
-4.7519355	肤	-0.09065846
-4.178632	串	-0.24223903
-4.054846	剪	-0.24296814
-4.430236	怨	-0.16771613
-4.133335	斩	-0.47452605
-4.163002	柔	-0.19317499
-4.02035	插	-0.21383278
-3.978244	郎	-0.45169157
-4.2864623	伞	-0.20620556
-4.194845	凉	-0.29048467
-4.1192284	盲	-0.52164364
-4.1055655	胸	-0.26706085
-4.6466393	衷	-0.27781034
-4.2474675	陕	-0.8562113
-4.3524265	戒	-0.1874801
-4.1479154	罕	-0.72577655
-4.133335	鸣	-0.3162706
-4.178632	狼	-0.19913936
-4.163002	踢	-0.1036526
-4.229209	阴	-0.38335076
-3.913149	券	-0.641728
-3.913149	介	-0.6869876
-4.430236	府	-0.21550177
-4.194845	迅	-0.4623989
-4.194845	捉	-0.16332926
-4.2665277	鼎	-0.21136945
-4.163002	惩	-0.64391404
-4.2474675	戈	-0.28066283
-4.178632	扇	-0.3018933
-4.02035	柯	-0.5172962
-4.491121	楠	-0.12309701
-4.163002	涂	-0.15035488
-4.3524265	滋	-0.44062492
-4.229209	谭	-0.23480284
-4.2665277	贺	-0.14272293
-4.2665277	跪	-0.17877743
-4.430236	旨	-0.55736697
-4.1192284	昏	-0.50079876
-4.307357	驳	-0.47980744
-4.178632	埋	-0.21582812
-4.4596124	酿	-0.16998592
-4.163002	赖	-0.28516233
-4.3524265	桶	-0.12926182
-4.133335	晕	-0.5398689
-4.8912215	谐	-0.24286298
-4.6022367	叹	-0.30660862
-4.1479154	埃	-0.416852
-4.2474675	您	-0.106732875
-4.2665277	玛	-0.16505055
-4.7519355	璇	-0.09675986
-4.4596124	痕	-0.46336618
-4.054846	躲	-0.2662167
-4.696104	咚	-0.10025969
-4.2474675	溪	-0.17396691
-4.491121	荡	-0.17956148
-4.2474675	桑	-0.10969793
-4.3524265	符	-0.3589993
-3.8799105	爸	-0.4722748
-4.430236	渣	-0.19427207
-4.133335	贫	-0.23980829
-4.402721	侯	-0.22434261
-4.307357	膜	-0.1319406
-4.430236	妆	-0.2227498
-4.2665277	尘	-0.28599146
-4.211687	窝	-0.3917463
-4.054846	挣	-0.42338496
-4.194845	烂	-0.25838646
-4.982232	煌	-0.3644547
-4.8160186	胀	-0.32346088
-4.194845	芳	-0.16268589
-4.402721	赋	-0.25493568
-4.211687	页	-0.26186487
-4.178632	吞	-0.16335677
-4.6466393	杉	-0.17606218
-4.402721	渝	-0.15991536
-4.163002	匹	-0.6042618
-4.2665277	桃	-0.3893892
-4.7519355	芸	-0.62151074
-3.913149	诸	-0.6591685
-4.3768463	楚	-0.3833677
-3.9398618	疾	-0.69417083
-4.3524265	丈	-0.4118031
-4.1479154	弄	-0.0946747
-4.229209	僵	-0.7840189
-4.229209	愤	-0.39083275
-4.329307	竹	-0.07974865
-4.3524265	俄	-0.31945962
-4.2665277	墓	-0.059656896
-4.133335	寒	-0.19401358
-4.2665277	聪	-0.20407319
-4.2864623	肝	-0.3825171
-4.402721	逮	-0.74695903
-4.2864623	雾	-0.27168843
-4.430236	媛	-0.1559654
-4.2864623	嫁	-0.21276075
-4.1479154	寄	-0.3550818
-4.194845	粗	-0.18568955
-4.491121	辈	-0.26803505
-4.2864623	扮	-0.09449971
-4.307357	蒂	-0.10015614
-4.307357	靖	-0.19293196
-4.163002	喂	-0.23747446
-4.163002	谎	-0.7060294
-4.3768463	翼	-0.24097362
-4.2474675	芬	-0.07556103
-4.211687	呆	-0.2597892
-4.6466393	役	-0.2979648
-4.1479154	扔	-0.21711634
-4.229209	硅	-0.61632603
-4.6022367	措	-0.35850918
-4.307357	钓	-0.507584
-4.2474675	烫	-0.53329676
-4.4596124	碗	-0.13675863
-4.491121	慌	-0.27489293
-4.329307	梳	-0.800405
-4.211687	衍	-0.7874955
-4.430236	滩	-0.14681852
-4.229209	莉	-0.097312815
-4.2474675	袋	-0.1417874
-4.6466393	夕	-0.2099052
-4.561956	寨	-0.109326914
-4.402721	盒	-0.16457608
-4.3768463	盼	-0.09108628
-4.329307	韦	-0.34329998
-4.6022367	卿	-0.30306157
-4.229209	毅	-0.2941917
-4.194845	秦	-0.14606091
-4.307357	塘	-0.12486643
-3.913149	佐	-0.78919256
-4.3524265	绘	-0.1342294
-4.163002	躺	-0.5480391
-4.525096	廷	-0.31746358
-4.194845	扑	-0.23954342
-4.211687	炎	-0.24326709
-4.6022367	厢	-0.19063933
-4.194845	纽	-0.57513857
-4.2665277	肿	-0.3776299
-4.178632	衰	-0.20238565
-4.2864623	辱	-0.37256402
-4.491121	硫	-0.16810837
-4.561956	铅	-0.49499485
-4.8160186	孩	-0.124890596
-4.6022367	芯	-0.26420075
-4.163002	踩	-0.20318504
-4.430236	宪	-0.19024241
-4.0094347	稽	-1.1248165
-4.402721	掷	-0.12271617
-4.2665277	脉	-0.176876
-4.178632	趴	-0.3788528
-4.7519355	钩	-0.47382092
-4.2864623	锐	-0.30318505
-4.525096	慰	-0.28908086
-4.2864623	斥	-0.12712243
-4.2864623	狠	-0.19968592
-4.430236	粒	-0.2933837
-4.194845	缠	-0.26420075
-4.4596124	耍	-0.24544913
-4.307357	脂	-0.0579713
-4.3524265	茂	-0.36029658
-4.307357	郝	-0.2816812
-4.3768463	翁	-0.086449735
-4.2864623	胃	-0.16307297
-4.4596124	逢	-0.08778949
-4.491121	椅	-0.25326374
-4.178632	挽	-0.43630645
-4.133335	巩	-1.1125273
-4.194845	皆	-0.24881247
-4.6022367	匪	-0.090840556
-4.307357	缝	-0.020253131
-4.4596124	仰	-0.4943787
-4.3768463	辟	-0.30779374
-4.430236	犬	-0.257927
-4.6022367	腕	-0.20679942
-4.402721	锡	-0.13789284
-4.525096	闸	-0.3350915
-4.307357	陵	-0.1602178
-4.307357	综	-0.6309566
-4.0669813	肯	-0.4747206
-3.8343844	授	-0.3894531
-4.307357	晋	-0.23704848
-4.2665277	挪	-0.4449644
-4.7519355	炭	-0.20314987
-4.211687	趁	-0.1994262
-4.163002	夸	-0.5004426
-4.402721	耀	-0.22413744
-4.2864623	臭	-0.24111067
-4.307357	凝	-0.3943739
-4.4596124	弊	-0.3943739
-4.2665277	掩	-0.24926995
-4.4596124	狮	-0.14642951
-4.2474675	铬	-0.6410886
-4.402721	叠	-0.2975176
-4.402721	坊	-0.06945639
-4.402721	拾	-0.26727572
-4.491121	蟹	-0.21635789
-4.6466393	裹	-0.15384762
-4.329307	疗	-0.081334196
-4.561956	绍	-0.5606084
-4.561956	册	-0.3772495
-4.3524265	鸟	-0.16004571
-4.178632	奢	-0.69293845
-4.8912215	侃	-0.16355905
-4.430236	蚁	-0.5207808
-4.3524265	霍	-0.23819669
-4.2864623	娟	-0.10140744
-4.402721	彰	-0.53298044
-4.307357	扳	-0.3874033
-4.6466393	晖	-0.12008747
-4.8160186	濠	-0.19546327
-4.329307	疫	-0.4132051
-4.3524265	蛇	-0.23097077
-4.307357	陌	-0.8198784
-4.3524265	兹	-0.14047816
-4.329307	冤	-0.20405641
-4.2864623	吻	-0.23097077
-4.329307	捅	-0.27865455
-4.8160186	蹈	-0.14802802
-4.3524265	惯	-0.48078156
-4.491121	舱	-0.13755009
-4.2864623	刹	-0.65497607
-4.8160186	柄	-0.36681342
-4.6022367	遂	-0.2548312
-4.982232	啡	-0.19517373
-4.491121	茨	-0.105503015
-4.402721	堡	-0.101420745
-4.6466393	奎	-0.16588472
-4.2864623	撒	-0.17695995
-4.3524265	碾	-0.4394768
-4.561956	穷	-0.36833486
-4.8160186	侣	-0.069539964
-4.402721	咸	-0.60199296
-4.3524265	掏	-0.29233953
-4.430236	瓷	-0.1932229
-4.307357	瞄	-0.9131549
-4.430236	铭	-0.28263107
-4.3524265	蜂	-0.2515147
-4.163002	够	-0.39937133
-4.329307	尝	-0.17409322
-4.402721	胆	-0.09332762
-4.7519355	魄	-0.36194518
-4.2474675	渴	-0.53953654
-4.2474675	湿	-0.21346428
-4.6466393	罩	-0.20615159
-4.491121	译	-0.18483272
-4.329307	浅	-0.35601783
-4.2474675	猝	-0.7409601
-4.307357	炫	-0.16931319
-4.329307	纤	-0.48888516
-4.2864623	肺	-0.19486369
-4.211687	顽	-0.65120023
-4.696104	睹	-0.28824311
-4.3524265	羞	-0.13359585
-4.4596124	脆	-0.17892638
-4.4596124	倪	-0.2673911
-4.3768463	妮	-0.15522256
-4.7519355	络	-0.14039573
-4.6022367	淑	-0.12220226
-4.2665277	撕	-0.13119708
-4.329307	猴	-0.57095873
-4.2665277	刮	-0.2072778
-4.491121	啥	-0.15736589
-4.6022367	喻	-0.29170263
-4.7519355	惑	-0.3243888
-4.430236	裙	-0.33010256
-4.2665277	骚	-0.68117434
-4.307357	晴	-0.29433337
-4.2665277	渗	-0.53965485
-4.2474675	羡	-0.55387986
-4.2864623	肾	-0.15829892
-4.4596124	傲	-0.3215495
-4.491121	叔	-0.13302663
-4.2474675	膝	-0.38667074
-4.525096	辨	-0.3536223
-4.402721	僧	-0.29828694
-4.4596124	淫	-0.36735067
-4.4596124	浙	-0.25605845
-4.491121	玮	-0.5908066
-4.329307	仗	-0.2611244
-4.307357	剥	-0.5647003
-4.6466393	朵	-0.13522473
-4.402721	鲍	-0.3971753
-4.402721	亭	-0.09185371
-4.329307	函	-0.1085243
-4.2665277	卸	-0.36700487
-4.307357	垂	-0.4567005
-4.2665277	惹	-0.14579824
-4.3768463	氢	-0.38182816
-4.329307	糟	-0.63079053
-3.978244	俱	-0.59575546
-4.329307	岩	-0.14972316
-4.525096	悔	-0.19305211
-4.4596124	琦	-0.05954415
-4.3524265	瘫	-0.07169119
-4.3768463	眉	-0.11846007
-4.561956	糊	-0.21650665
-4.7519355	舰	-0.2292887
-4.402721	莲	-0.14579824
-4.7519355	贞	-0.5073519
-4.7519355	械	-0.33787662
-4.3524265	泛	-0.3371576
-4.329307	坎	-0.13268983
-4.525096	勃	-0.27842605
-4.8160186	帷	-0.84869695
-4.3768463	扯	-0.07828496
-4.4596124	洽	-0.34674427
-4.3524265	翘	-0.15178956
-4.430236	耕	-0.091490984
-4.402721	锤	-0.16424625
-4.402721	祈	-0.29382306
-4.307357	亩	-0.22058879
-4.211687	奠	-0.84869695
-4.6022367	妍	-0.24921672
-4.491121	斑	-0.34033749
-4.6022367	簿	-0.14768898
-4.329307	乞	-0.225443
-4.491121	唇	-0.2340176
-4.6466393	瞒	-0.07828496
-4.430236	伍	-0.16488232
-4.329307	距	-0.09666604
-3.5308025	培	-1.1007478
-3.8879848	详	-0.80801094
-4.329307	抹	-0.12996024
-4.079466	樊	-0.66108406
-4.2474675	亨	-0.4770732
-4.3524265	辣	-0.07823592
-4.8160186	霾	-0.07376219
-4.4596124	悍	-0.37658226
-4.329307	犹	-0.36943993
-4.2864623	甩	-0.21015278
-4.2864623	盯	-0.25251287
-4.6022367	恼	-0.2760943
-4.402721	泼	-0.09199941
-4.561956	浸	-0.24182189
-4.402721	烤	-0.17264445
-4.525096	莎	-0.18748946
-4.561956	谱	-0.2861481
-4.6466393	坝	-0.18748946
-4.6466393	汁	-0.33224276
-4.6466393	沸	-0.6463459
-4.307357	邹	-0.056260042
-3.998787	兄	-0.85189426
-4.6466393	姨	-0.06339069
-4.329307	闷	-0.14639893
-4.696104	御	-0.12172807
-4.3524265	丧	-0.17369054
-4.696104	叉	-0.10540511
-4.8160186	坞	-0.032647062
-4.402721	娶	-0.2547529
-4.491121	禽	-0.20787887
-4.4596124	绵	-0.15868723
-4.6022367	鳄	-0.23947527
-4.525096	倩	-0.049939547
-4.7519355	惧	-0.2194519
-4.430236	爽	-0.20787887
-4.402721	穆	-0.2053292
-4.3768463	萍	-0.10043833
-4.2474675	遮	-0.18923081
-4.2474675	闫	-0.51115596
-4.4596124	宰	-0.12491054
-4.402721	恨	-0.22206672
-4.696104	筋	-0.38775402
-4.7519355	膀	-0.21424998
-4.561956	逊	-0.1644585
-4.6022367	钦	-0.14305566
-4.561956	廊	-0.15416104
-4.8160186	浆	-0.53505945
-4.430236	淮	-0.2407991
-4.3524265	砂	-0.53505945
-4.4596124	纲	-0.23947527
-4.307357	赤	-0.1419983
-4.329307	逛	-0.1843766
-4.6466393	袖	-0.12914051
-4.491121	披	-0.047754474
-4.079466	姑	-0.674178
-4.3768463	捣	-0.4921496
-4.3524265	剖	-0.62217075
-4.6466393	嫖	-0.047754474
-4.402721	岭	-0.136031
-4.6466393	芽	-0.16507144
-4.561956	佑	-0.2542469
-4.6022367	咏	-0.35150358
-4.525096	渊	-0.18350776
-4.8160186	皓	-0.08609995
-4.6022367	蛙	-0.5858502
-4.6022367	廖	-0.23262915
-4.402721	滥	-0.63622475
-4.561956	瘾	-0.5582398
-4.3768463	绳	-0.14970091
-4.6022367	谦	-0.10662191
-4.6022367	兔	-0.39828187
-4.430236	哀	-0.2707956
-4.3524265	痴	-0.3762284
-4.561956	碟	-0.39828187
-4.982232	赂	-0.1885737
-4.525096	饿	-0.12816188
-4.491121	韵	-0.22702585
-4.525096	唯	-0.24594477
-4.525096	择	-0.2209581
-4.6022367	什	-0.17215422
-4.4596124	秉	-0.30442128
-4.402721	罢	-0.17732508
-4.3768463	脖	-0.50651175
-4.561956	躁	-0.2890741
-4.6466393	卵	-0.356025
-4.6022367	嘲	-0.050164934
-4.402721	奉	-0.09065846
-4.6022367	彤	-0.13891757
-4.329307	渔	-0.22815618
-4.696104	磅	-0.14486808
-4.430236	筛	-0.53803647
-4.561956	箭	-0.09597927
-4.430236	骤	-0.18914248
-4.3524265	仙	-0.11241515
-4.982232	慨	-0.16837032
-4.7519355	豫	-0.30093738
-4.491121	贬	-0.53803647
-4.307357	铲	-0.12375257
-4.491121	鹤	-0.2775263
-4.7519355	澡	-0.17474145
-4.3524265	竣	-0.7729762
-4.7519355	侨	-0.39066198
-4.3524265	桩	-0.10487692
-4.3768463	柴	-0.27810878
-4.430236	蕴	-0.36522725
-4.402721	蹭	-0.13710758
-4.329307	兜	-0.3027583
-4.525096	兽	-0.19691303
-4.3768463	庙	-0.09014671
-4.6466393	肋	-0.36522725
-4.4596124	朴	-0.15613578
-4.329307	溜	-0.20696686
-4.6022367	焚	-0.17877743
-4.491121	耶	-0.16136889
-4.402721	苛	-0.5807781
-4.491121	鸭	-0.28671825
-4.307357	逗	-0.3027583
-4.6022367	牧	-0.17877743
-4.430236	铸	-0.34870824
-4.6466393	魂	-0.17333157
-4.3524265	沦	-0.47436157
-4.402721	俏	-0.33876383
-4.329307	凑	-0.032874454
-4.4596124	噪	-0.6437871
-4.430236	苑	-0.10952431
-4.430236	竖	-0.034675572
-4.178632	氮	-0.57042694
-4.6022367	艇	-0.1249046
-4.3768463	余	-0.16335677
-4.3524265	咋	-0.09545188
-4.7519355	戚	-0.06122687
-4.7519355	漠	-0.11116561
-4.307357	崩	-0.055798903
-4.696104	霖	-0.17463663
-4.430236	屠	-0.16201603
-4.329307	帐	-0.3125593
-4.7519355	谍	-0.21483745
-4.3768463	雕	-0.12613541
-4.8160186	靡	-0.17314993
-4.402721	巷	-0.11116561
-4.525096	擒	-0.2878345
-4.6022367	浇	-0.28415614
-4.491121	浴	-0.13909248
-4.4596124	詹	-0.3622407
-4.525096	钉	-0.27152568
-4.8160186	瘤	-0.19057782
-4.402721	萤	-0.60580975
-4.402721	孝	-0.11116561
-4.6022367	甸	-0.08371694
-4.6022367	衫	-0.10625656
-4.525096	爹	-0.09545188
-4.8160186	析	-0.12359111
-4.525096	纹	-0.26665688
-4.525096	纷	-0.21216257
-4.4596124	稻	-0.21216257
-4.8160186	潼	-0.04216887
-4.6466393	巾	-0.12359111
-4.329307	呀	-0.5980296
-4.561956	臣	-0.15115553
-4.491121	嘛	-0.4987
-4.696104	禾	-0.15115553
-4.7519355	窜	-0.22890812
-4.491121	脊	-0.19299307
-4.4596124	舌	-0.13301992
-4.525096	茅	-0.14829753
-4.6022367	钞	-0.21878844
-4.491121	傻	-0.15540074
-4.4596124	靓	-0.06489527
-4.4596124	饥	-0.40499943
-4.561956	唤	-0.3387596
-4.561956	墩	-0.06489527
-4.982232	壤	-0.307037
-4.3524265	灌	-0.14547898
-4.561956	筒	-0.087684534
-4.430236	邵	-0.14547898
-4.491121	龟	-0.10142353
-4.525096	崔	-0.059119437
-4.561956	己	-0.17925319
-4.696104	朋	-0.20069335
-3.9683259	抄	-0.91728723
-4.6466393	巢	-0.17925319
-4.402721	歪	-0.15576513
-4.6466393	悠	-0.14824142
-4.430236	捂	-0.12201777
-4.491121	泊	-0.13638578
-4.8912215	溯	-0.14227316
-4.6466393	傍	-0.5575051
-4.525096	忌	-0.09876754
-4.491121	惟	-0.22856037
-4.491121	挨	-0.1437052
-4.4596124	棉	-0.14227316
-4.430236	熬	-0.12065541
-4.696104	嚣	-0.30522308
-4.525096	攒	-0.12065541
-4.7519355	焰	-0.17284639
-4.7519355	愧	-0.24883248
-4.6022367	坪	-0.09471748
-4.491121	嫂	-0.11505208
-4.982232	佬	-0.21967766
-4.525096	扒	-0.17284639
-4.7519355	屯	-0.2462087
-4.561956	筑	-0.13960719
-4.696104	殊	-0.20211744
-4.491121	窄	-0.5566876
-4.430236	奏	-0.21032532
-4.031547	肌	-0.6701391
-4.561956	芝	-0.15412468
-4.6466393	眠	-0.29619336
-4.7519355	冀	-0.36176255
-4.6466393	炳	-0.09102215
-4.696104	徽	-0.19295183
-4.561956	绪	-0.227546
-4.6022367	励	-0.29709035
-4.6022367	杭	-0.06175528
-4.7519355	娱	-0.13377115
-4.229209	丙	-0.6114272
-4.0430403	怎	-1.0371653
-4.8160186	允	-0.088876925
-4.8912215	仑	-0.6886445
-4.696104	钧	-0.6114272
-4.02035	肇	-0.9951495
-4.696104	吁	-0.06018893
-3.9045978	贡	-1.0672352
-4.8160186	努	0
-4.7519355	伐	-0.41511634
-4.7519355	墅	0
-4.8912215	烯	-0.15241525
-4.982232	璨	-0.23317017
-4.8912215	垄	-0.10138335
-4.8912215	狐	0
-4.982232	恢	0
-4.8912215	憾	-0.47707877
-4.8912215	盾	-0.22269608
-4.3768463	徘	-0.825281
-5.035466	徊	-0.46753973
-5.035466	阱	-0.2756351
-5.035466	蝠	-0.6859965
-4.561956	蝙	-0.8501046
-5.035466	葩	-0.14829753
-4.6466393	缔	-0.347651
-5.035466	秽	-0.34316623
-4.696104	硝	-0.20407675
-4.8912215	撼	-0.19767
-4.491121	挫	-0.2456084
-4.525096	悼	-0.41834855
-4.402721	遏	-0.8958621
-4.4596124	蔬	-0.73175395
-4.561956	缉	-0.3027583
-5.035466	婿	-0.07912476
-4.3768463	坍	-0.8958621
-4.525096	啤	-0.8958621
-4.402721	荧	-0.6019674
-4.982232	弈	-0.17994334
-4.6466393	幺	-0.2975064
-4.3768463	蔓	-0.9372547
-4.3768463	昔	-0.85332084
-4.402721	迄	-0.9565599
-4.4596124	捍	-0.7506516
-5.035466	侈	-0.47472054
-4.8912215	盔	-0.3147859
-5.035466	擎	-0.23273337
-5.035466	怖	-0.13505563
-4.3768463	巅	-0.6740133
-4.491121	囊	-0.3624132
-4.307357	牺	-0.99277204
-4.329307	妨	-0.34674427
-4.2864623	跻	-1.0098054
-4.982232	莓	-0.07579941
-4.6022367	纱	-0.37515157
-4.2665277	浏	-0.8038971
-4.8160186	楷	-0.3637776
-4.4596124	撰	-0.8038971
-4.3524265	酝	-1.0261959
-4.7519355	纺	-0.15736589
-4.982232	牲	-0.19035731
-4.3524265	擂	-1.0261959
-4.696104	慕	-0.21824385
-4.4596124	咕	-1.0261959
-4.229209	锂	-0.57685196
-4.8912215	淇	-0.10059405
-5.035466	匙	-0.22857119
-4.4596124	匿	-0.30854902
-5.035466	畴	-0.41951874
-4.329307	辐	-0.92208564
-4.3768463	钥	-0.7485775
-4.4596124	瞩	-0.8940737
-4.402721	歧	-0.43033817
-4.307357	勘	-0.5743731
-5.035466	睐	-0.52070767
-4.6022367	垒	-0.30935284
-4.2474675	孵	-1.0070595
-4.402721	喀	-1.0070595
-4.211687	谌	-1.1630338
-4.561956	琐	-0.29420385
-4.8912215	殖	-0.20722449
-5.035466	亵	-0.28784811
-4.211687	萎	-0.9909837
-4.211687	崛	-1.2076159
